147 100
to -0.00060141325 0.00047530144 0.005181419 0.008946453 -0.009134035 -0.007656727 0.0067711235 0.009811924 -0.005306597 -0.0040912917 0.007238158 -0.0021184143 -0.0043934654 0.0067271376 -0.0046500782 -0.0020452698 0.0029375986 0.00067460147 -0.008368523 -0.010150618 0.007522931 0.0051363045 0.006891259 0.0006885723 0.0061909137 -0.00335368 -0.001168526 0.005757426 -0.0076358384 -0.004031802 -0.007276468 -0.00091556384 0.009697296 -0.0076955087 -0.0023821301 -0.0014201099 0.008289752 -0.006179228 -0.0001924208 -0.005121809 -0.009489125 0.004771515 -0.008803734 -0.0042837565 0.00030742638 -0.00029893868 -0.007936818 0.00965134 0.0051443637 0.009372673 -0.008048701 0.004262122 -0.0040803202 0.000728271 0.008278439 -0.0042560883 0.0045971014 -0.006701011 -0.0036938998 0.009655811 -0.0014767692 0.00026953575 -0.0038570531 -0.007413256 -0.0018095705 0.0027836955 -0.0007506584 0.0060871295 -0.0032554423 0.0026837506 0.005289904 0.008690763 -0.0010787594 -0.009253031 0.0047583673 0.0006552091 0.0076099336 -0.0005609428 -0.002815227 -0.008622684 -0.0012119333 0.003203972 0.0049981577 0.0075115263 -0.006009029 0.0018893762 0.006687105 -0.0045232307 -0.0027269926 0.0067890855 0.0021277086 0.00037573045 0.0035401878 0.00032036516 0.010009025 0.0052408045 -0.008558422 -0.0072104265 0.0009646948 0.006324954
the -0.00869084 0.0038826538 0.0052917344 0.0056784377 0.0076122736 -0.0064925086 0.0013511856 0.0066419896 -0.00311194 -0.006380093 -0.0005380008 -0.008795971 -0.005487042 0.007235542 0.0035398277 0.0070289746 0.0068035936 0.007279445 -0.0038894638 -0.0010885729 0.0024722344 -0.0044478383 0.008495596 -0.009907284 0.006569207 0.0029354286 -0.005064413 0.004316755 -0.0018286301 0.006629706 0.0101746125 -0.0044103884 -0.0004584658 -0.0059559573 0.0038503145 0.003222969 0.007058947 0.0059482274 0.009348273 0.009006649 0.007993893 -0.007138791 -0.00919539 -0.00020590666 -0.002867274 0.007888275 0.0057257595 -0.0015112221 0.0016291565 0.0018807796 0.007885399 -0.009725837 -0.00020546746 0.0034121138 -0.0011524135 0.008596855 0.009114604 0.006605523 -0.0008236493 0.007936774 -0.008461235 0.0032150487 -0.0044091116 -0.004889294 0.0033609816 0.0056176307 0.0078470595 -0.0053231986 0.007043737 0.0069419146 -0.0038678274 -0.008474708 0.005671358 0.0064767334 -0.0004814932 -0.0066277343 -0.0069493596 -0.0022663306 0.005025542 -0.003639268 -0.009634476 0.004074169 0.0045878333 -0.00607344 0.0009650219 -0.002012897 0.00044071896 -0.009657642 0.0030134914 -0.0047551305 0.0014760507 -0.0014802256 0.0021634593 -0.0077997637 -0.0024798727 0.002804756 0.005636701 -0.0025247526 -0.009439715 0.0044360785
lamp 1.3931973e-05 0.0033729097 -0.0066773575 -0.0014490623 0.007869056 0.0068181884 -0.0032912416 0.0035659098 -0.008750829 0.0058684754 -0.004806823 -0.0038176004 0.009466123 0.0011290531 0.00772596 -0.0063500903 0.0052130367 0.009609503 -0.008601203 -0.0059863757 -0.0068764817 -0.0047703646 -0.003612521 -0.008669697 0.007736669 -0.004801107 0.008188518 0.005176819 -0.00668574 0.0038796382 0.005792438 -0.007479361 -0.0071831252 -0.002928007 -0.008683548 -0.000962286 -0.00017333662 0.003057665 0.0011982626 -0.0013251887 -0.0054535293 0.001463804 -0.0009321522 0.0069880136 0.0043573994 0.004517186 0.0011200045 -0.0026592428 -0.004183254 -0.0008906878 0.0015454941 -0.0029641138 -0.007066942 -0.007874835 -0.0094471425 -0.0056287544 -0.0017232707 -0.0042318166 -0.006620212 -0.0033937364 0.0043936362 -0.0037511738 0.008710438 0.0018370239 -0.0075731263 0.0098326625 0.0077768033 0.0061408295 -0.007473362 0.0063141515 0.0037464618 0.005572479 0.0046408344 0.0018813298 -0.0027242592 0.008473536 0.009798194 0.004161079 -0.0030322222 6.623115e-05 0.0008127256 -0.008099766 -0.0086605195 0.00030842444 0.0008828994 -0.0056563034 -0.004063099 -0.0070266854 0.008774446 0.000113988724 -0.0039473237 0.0058832606 0.009159599 -0.003980551 0.00834429 0.0055625006 0.0063107884 0.00031762524 0.00830976 -0.007061107
user -0.008409493 0.009640005 -1.2890042e-05 -0.0021438934 0.00477259 -0.004580942 0.0030297078 0.0077076624 0.005681948 -0.00774362 0.00913528 0.004126474 0.0041170088 -0.006133328 0.00875687 -0.0024616334 0.008815409 -0.0057133953 -0.008240521 0.006008437 0.0018734026 -0.002094597 0.009779392 0.009406391 -0.010010498 0.0025713122 0.005927903 0.003829331 0.0019759315 0.00042143505 0.0009971343 -0.003823736 -0.006869937 -0.0024299966 0.0039720437 0.009387813 0.009426499 -0.006203799 -0.009752092 0.009384809 0.003490654 0.004945648 0.0062468145 -0.0025668314 0.007611112 0.0027441282 0.0025999795 -0.0023286785 -0.00302264 -0.0022738688 0.004408877 -0.00021515266 -0.009575163 -0.009755299 -0.0064588687 0.0001632496 0.002151155 0.009512306 0.0054090996 -0.0039409483 0.00034262272 0.0049468325 0.007993111 -0.00085877895 0.0040340824 -0.005451093 -0.0006841381 0.008711054 -0.002930835 -0.0092211375 0.005506186 -0.0035256094 -0.0009200523 0.009938774 -0.0018679851 -0.00463982 -0.005107578 0.0072393073 -0.0059301713 0.002227259 -0.0056242594 0.006503992 0.0039221803 0.0030479864 -0.001851349 -0.0026320096 0.0095875105 0.0055105602 -0.0017211642 -0.009462881 -0.0067614396 -0.00097196683 -0.0009106076 -0.0025779132 0.010004749 -0.00029925207 0.0064045694 -0.0076335305 -0.0024215432 -0.0056404457
wifi -0.0072756647 0.0016483703 -0.007046942 -0.0024299764 0.004014172 0.0052083526 0.0015167235 0.0031607435 -0.004541652 0.0068166167 -0.0064828023 0.0039226087 -0.0080875335 0.002283055 -0.0046482696 -0.004597918 -0.0030641705 0.005284749 0.0057696416 -0.0059517 0.0010340617 -0.008435642 0.00808228 0.009216037 -0.0030373482 0.00087184436 0.00049187656 0.005388112 -0.008687685 0.0005131138 0.0071752076 0.0022227226 0.0013360205 -0.009816044 0.008500073 -0.0055873524 -0.0027632038 0.0031729557 -0.0010598621 0.0008957418 0.0019115035 -0.007121751 -0.009753435 0.009257247 0.0066105616 -0.0069206282 0.0030417377 0.00022795616 0.0050010006 -0.006961792 0.004139688 0.004026561 0.009990863 -0.004576021 -0.0016597391 -0.0070791673 -0.009492169 -0.009009712 -0.0011419805 -0.0061608832 0.0049707857 -0.006190542 0.0029115556 0.0010309096 -0.0038181564 -0.00059038814 0.0101590725 0.00989531 -0.0051485137 0.009603411 -0.0058613033 0.0063489876 -0.002652309 0.003469536 0.0034685037 0.007045874 -0.0022046964 0.009130877 0.0073672477 -0.009479021 -0.0084724445 -0.007140258 0.0024023652 -0.0022693684 -0.0072657913 -0.008026859 0.009054577 0.002296192 -0.008802665 -0.0047128526 0.0038237073 -0.0045273695 0.005226524 -0.0041120104 0.0030739505 -0.007773688 0.0067091486 0.0045383605 0.0008782079 0.0028923426
and -0.008794867 0.0023818985 -0.0008228932 -0.009424503 -0.009300546 -0.001715688 0.0046191933 0.00424002 -0.0067550545 -0.007060759 -0.0051128683 -0.0026631318 -0.007146398 -0.0094933165 -0.0025447598 -0.008542979 -0.0060008713 -0.005846356 -0.0024153944 -0.002230212 -0.008855346 -0.000682684 0.008256456 0.007630588 -0.007350257 -0.0036000279 0.0030029006 -0.009634919 0.0013856599 0.0064658266 0.005947888 -0.008778235 -0.0044285143 -0.008412292 3.423382e-05 0.009630391 0.0060982676 0.004920185 0.0049271 -0.0035165523 0.009632712 -0.0074747885 -0.007275298 -0.0021789374 -0.0005281562 -0.003195538 -0.00076274364 0.0075079794 -0.00059149484 -0.0015752496 0.0028059024 -0.008518405 0.007856964 0.008487085 -0.00975506 0.0025628835 0.009977855 -0.007622538 -0.0070685665 -0.0075818207 0.008485688 -0.00068506715 0.0093213245 -0.00799548 0.003551473 0.0028792098 0.0008361472 0.0026978625 -0.0078034457 -0.00905874 0.0022129512 0.0063818614 0.008182591 0.0057730456 -0.0005510879 0.00842042 -0.009221078 0.0035979329 0.00017831792 0.003914188 0.007159101 -0.006512782 0.00531005 -0.009241938 -0.0010113897 -0.008664938 -0.004722226 0.009473122 -0.0015905369 0.0029604377 0.009421117 0.009051056 -0.008209043 -0.0029585164 0.010144806 0.0052410457 -0.0012945345 -0.008825756 0.003002216 -0.0067640897
have 0.008028676 -0.004206923 -0.0009678749 0.000897374 -3.0445452e-05 0.00074604596 0.006333241 0.0005980234 -0.003509115 -0.0017392978 0.005777644 0.0010525922 -0.0005737735 0.009420081 -0.004677498 -0.0010588228 0.00919857 0.006492119 0.0014228513 -0.009467233 0.0012727466 -0.0022219084 0.009487177 0.0011622091 0.0013165446 0.0024836746 -0.0019677437 -0.0050744107 0.0002000291 -0.0020776333 0.006787004 0.00894687 -0.00057758077 0.002717583 -0.006116458 0.0021214613 -0.0067832577 -0.00892667 -0.006075564 -0.009282929 0.007371057 -0.0058876183 0.00828832 -0.007154401 0.003667948 0.009639221 -0.007969886 -0.009941303 -0.004165674 -0.0026056138 -0.00018500783 -0.009104109 -0.0085955355 0.0027593845 -0.008448673 -0.008914838 -0.0022481645 -0.008554401 -0.007148664 -0.008195006 -0.00019461896 -0.004543898 0.0068096197 0.0016993526 -0.0035443823 0.006373676 -0.0059300005 -0.0042124735 -0.007603724 -0.0040261555 -0.001939902 0.006773204 -0.002557136 0.0049388153 0.0071847457 -0.0073485863 0.0046995175 0.006316622 -0.0030804821 0.0067068036 0.0058637625 -0.0061622434 -0.007090939 0.0028472277 -0.0018445281 -0.006029131 0.0099382615 -0.004910715 -0.0062596938 -9.940925e-05 -0.0022696967 0.0005682243 -0.0035496322 -0.00034384502 -0.00037514887 0.0009750102 0.008526831 -0.0059303185 -0.0015924658 0.0055028656
then 0.008114349 -0.004195205 0.009079659 0.008157009 -0.0042995447 -9.215127e-05 0.0045060324 -0.003300832 -0.0058580767 -0.0067458465 -0.00082362216 -0.00074899435 0.004552563 -0.002360655 1.128905e-05 0.0022842514 0.0048806947 -0.00024356734 -0.006395009 -0.009882241 0.0001622526 0.0066796904 0.0015826332 -0.009015284 -0.008107053 0.0065977983 -0.003948228 0.0062031723 -0.0067228316 0.008411193 -0.006308724 0.0032929652 -0.000918765 -0.007109829 -0.0032853847 -0.00077169394 -0.0053287204 -0.0013858842 -0.007715932 0.0023199734 0.0091444515 -0.0025683271 -0.0010175488 0.0035924714 0.008933842 -0.005963511 -0.0070657744 -0.0028876138 0.009267389 0.00096958596 -0.008619245 -0.0016494525 0.009511076 -0.0075729424 -0.005542961 0.009507625 -0.008910823 0.0038697403 0.0005808491 0.0068878946 0.008396195 -0.0028953066 -0.003770543 0.009094277 0.0018561117 0.006537669 -0.009323526 0.010014771 -0.0017402167 -0.0057248515 0.0027920222 -0.00018603241 0.0049470146 -0.0023158363 -0.0038517502 0.002400969 0.00845755 -0.0047615976 0.0025566418 -0.007931513 -0.0070136255 -0.00021237397 -0.009105513 0.0031261041 0.0014047382 -0.0022718906 0.005465661 0.009958038 0.008778059 -0.0018567898 0.002431945 -0.0039183367 -0.008266652 0.0063350815 -0.0016427814 -0.0005581964 -0.0014797426 -0.004671839 0.004117031 -0.0043029618
or -0.009616842 0.009079349 0.0042284722 0.009188032 0.006727734 0.0026621923 0.009992223 -0.0039804196 -0.0070130876 0.004062018 0.0036221347 -0.0060018897 0.009758942 -0.003476752 0.00965787 0.0007109223 -0.0063118627 -0.0021335755 -0.007440666 -0.0033806649 0.0010889452 0.009521935 0.009413723 -0.0066571236 0.0033415437 0.0023440397 -0.002627922 -0.009274496 0.0009857375 -0.008189612 0.006448218 -0.005818319 0.0056311293 0.009578953 -0.0001780459 0.0048351106 -0.0017142382 0.0072160005 0.0038138956 -0.009237427 -0.0023236782 0.003494976 -0.000100469486 -0.0011038041 -0.0008780433 -0.0017169012 0.00045818635 0.0041642636 -0.0041581756 -0.00378927 4.4761673e-06 0.00010364242 -0.00012319797 -0.0048188097 0.0041363984 -0.0020408558 0.0021628975 0.0006908857 0.0058851615 -0.006659193 -0.0067642056 -0.0045234547 0.009585306 -0.0014147271 -0.009615585 -0.00034214833 -0.004369419 0.006311634 -0.009880727 0.003085502 -0.009402474 0.0014377574 0.0061677336 0.007371041 -0.0073670107 -0.0059745717 -0.00675137 -0.0077253673 -0.009599383 -0.002058144 -0.0010106714 -0.0070501487 0.0066120857 0.0013393008 0.005665358 0.0014925475 0.0011045296 -0.0071711447 -0.0019706592 0.004311378 -0.0048216055 0.001215005 0.0028725583 -0.0015035856 0.010154765 0.008423967 0.0026372883 0.007001423 0.0059426846 -0.0055755824
option -0.005212901 -0.0064696604 -0.007707358 0.008285643 -0.0018668199 -0.007182557 -0.0039420333 0.0056779673 -0.003048085 -0.0039657257 0.0015207105 -0.0031357103 -0.0014912585 0.0011858537 -0.002848132 0.008310148 0.0039506857 -0.010190866 0.006189279 -0.0071934615 0.000866697 0.0044234986 -0.0050220615 -0.0021112969 0.00796874 -0.004207704 -0.007787577 0.0092544565 -0.0022115519 -0.004751385 0.00870851 0.0042686043 0.004442524 0.009023376 -0.008451454 0.0055971188 0.0021827694 0.004015047 0.0015396699 0.0042143934 0.0045304215 0.0059529096 -0.0032114505 -0.0044921534 -0.00022674592 0.002506442 -0.0034183983 0.006101378 0.004245028 0.007851158 0.0026765135 0.007913032 -0.0013640446 0.007977173 0.003553909 -0.007894645 -0.003868574 -0.0023944434 0.0048435675 -0.0007084652 -0.0028015187 0.007778738 0.0095076775 -0.0014330675 -0.005344902 -0.004511902 -0.0047519035 -0.009210911 0.0009976292 -0.003990745 0.0024197446 0.0058532273 -0.0038097033 -0.009642466 0.0018169548 -0.006657157 0.002571193 -0.0035788056 0.006959486 0.0007142617 0.0033067844 -0.0024895135 -0.0019508998 0.007923636 0.0012387318 -0.0058440296 -0.0074139256 0.0013936594 0.006680561 0.0055462224 -0.008669733 0.00868883 0.004041379 0.0075242217 0.009996137 -0.0072273216 -0.008803978 0.005736777 0.009447002 0.0034960997
they 0.0070475955 -0.001394046 0.008043273 -0.009604938 -0.007908494 -0.0069243824 -0.0038404071 0.0054173796 -0.0039837775 -0.008515022 0.008330201 -0.0040052347 0.008655375 -0.004864348 0.004083325 0.0048140604 0.002402962 -0.0030021477 0.0028242418 -0.008705858 -0.002659934 -0.0025443148 0.0073316703 -0.0034988974 -0.0067368303 0.0043860786 -0.0006018379 -0.0036643636 0.0068495884 0.003870705 -0.0037721042 0.0007738689 0.009203879 0.007538782 0.0063881474 0.0049394257 0.0024409231 -0.0019725554 -0.006466944 -0.00056233787 -0.0015266396 -0.0007162212 -0.0062401956 0.007527238 -0.0064043947 -0.0073120026 -0.0029168844 -0.0014918951 -0.007540518 0.0007960992 -0.0052515715 -0.0013708209 -0.0073448136 0.0019191841 0.0031745266 6.849474e-05 -0.0053687035 -0.0016628958 0.006979134 0.0038806102 -0.008835099 -0.003433561 0.0024986465 0.0022646738 -0.00960858 0.0047472217 -0.008536664 -0.007108167 0.0031964206 -0.003270083 0.0034666995 0.0090725 -0.0034310701 0.009325043 0.0019117598 0.0099347625 0.0057517826 -0.008987822 -0.0034217313 0.00653824 0.0054663885 0.008926862 0.006703229 0.008294015 -0.009922876 0.004358946 -0.0046909186 0.0036977346 0.006261371 0.004446119 0.007814891 0.001578562 -0.0012669989 0.0058130613 -0.005412599 0.00012028103 0.009653537 -0.0056300214 0.0038893612 -0.0081900945
on 0.009661521 0.008442649 0.0013772679 0.004968931 0.0016111527 -0.0068856436 -0.0011853892 0.0071688495 -0.004961059 -0.0041747955 0.0047650198 0.0022008338 -0.0018057703 -0.0027144838 0.0062402133 -0.005985836 -0.0032278965 -0.006750376 -0.004254236 -0.00928543 -0.0042700334 -0.008411148 0.0016016138 -0.008638112 -0.010136502 -0.008138764 -0.0069851717 0.006663261 0.0037487359 0.00034592222 -0.0027214848 -0.007448619 0.0007021204 0.00016926044 0.00021057208 0.0013308693 0.0009330949 -0.00028908806 -0.008250511 -0.006243505 -0.008315028 -0.0015068299 0.0018068012 0.0076365643 -0.0017219714 -0.0023581707 0.009223491 0.000121038756 -0.0022402727 0.008688718 0.0027824095 -0.0055894037 0.0066344636 0.0044338275 -0.0073069762 -0.00012870238 0.001033224 0.0057855295 -0.0017821494 -0.0025182655 0.0017677902 0.0007758262 0.0014576477 -0.0024530764 -0.0063127936 0.00762012 0.0077213165 0.008867781 -0.009136753 0.0030045612 -0.0038149913 0.009924585 0.0031869626 0.004626555 0.002699921 0.00672457 -0.0056179357 0.008226423 -0.0025979565 -0.004531111 -0.0024188017 0.010124976 -0.00723079 -0.0017834941 0.006724701 4.9666403e-05 -0.005758427 -0.00617339 0.009320724 0.006488843 0.0052599944 -0.003158235 -0.009382556 0.003776049 0.0074170684 -0.0054589678 -0.007441263 -0.0031572944 -0.0048204563 -0.0023440968
with -0.002027306 -0.0051129893 0.009499595 -0.009331429 0.0045534875 0.0051461626 -0.0012904365 0.009401558 0.009657431 -0.0055846814 -0.006142404 -0.0070835166 -0.007849814 -0.0030005348 -0.0054784366 -0.008512118 0.0007926718 0.0028400668 0.006404613 -0.003033054 -0.004383228 0.0013268567 0.0005009798 0.008133646 9.481376e-05 0.0073018237 -0.008382491 0.008406686 -0.0019046675 0.008658078 -0.00752201 0.0018050615 0.0011241905 -0.00016786522 -0.0051323813 -0.008962734 -0.007170222 -0.0080902865 0.0017876492 0.0002509748 -0.0017352946 0.007013754 -0.0024989133 -0.0012343003 -0.00875108 -0.009915274 0.008788113 -0.00577222 -0.0062807677 0.005234855 0.006690225 -0.006981525 0.0009932185 -0.006035562 0.001528887 -0.004210205 -0.003348469 0.002142951 0.00862179 0.0068551237 -0.009642321 -0.005641593 0.007999822 0.002060217 -0.0044408743 0.00075526664 0.00958837 -0.0007643804 -0.0096871825 0.001810213 0.006130714 0.0064820754 0.0042947275 -0.0056392713 -0.00017045547 5.1261395e-05 0.0046647363 -0.00791071 -0.008102053 0.00031019317 -0.0087952 0.0060036476 -0.0006229237 0.010154465 -0.005511249 -0.00048846134 0.008000544 -0.0039071077 -0.0048317094 0.0016160014 0.002871779 -0.002450683 0.006431127 -0.007643765 0.0035961154 0.0006258531 0.00899119 0.0059095635 0.006856566 0.007786929
same -0.009559775 0.009720438 -0.007710748 -0.002708799 -0.004816476 -0.00519566 -0.007920452 -0.00745637 -0.004685807 -0.0014026257 -0.0051684203 0.005895648 -0.009444409 -0.005281579 0.009564458 0.0068796733 0.0077216527 0.004073481 0.000494944 -0.006305777 0.0060835923 0.0026753037 0.0077628344 0.0063518803 0.007844912 0.008739574 -0.010013986 -0.006780577 0.0013252129 0.006434849 0.0074667837 0.005492162 0.00769131 -0.005297593 0.0065707457 -0.0038877893 -0.008979787 0.009049136 0.0012558064 -0.002936995 -0.002442183 -0.0043082773 0.0047888267 0.0044674342 -0.0025305022 -0.0073714647 -0.0036687336 -0.00033997413 0.0061717727 -0.0028054372 -8.539318e-05 0.00078372116 -0.0070716976 0.0020801723 -0.0015374868 0.0028885733 0.004912186 -0.0013271321 -0.0028386018 0.007834235 0.005065439 0.006674428 0.0046396595 0.008788806 0.007337535 -0.00093311886 0.008811524 0.0048241518 0.0052326606 -0.0012142505 -0.0021316663 -0.0042631333 -0.008374573 0.0030389754 0.009024276 0.008981254 -0.0019060288 0.006236084 0.0037030554 -0.0042607286 0.0019115832 -0.005297781 0.008049965 0.005604615 0.0031029028 0.004115519 0.00888024 0.007427342 -0.0006707935 -0.0070466464 0.008584158 0.007312244 0.0017353736 -0.001334939 -0.005704924 -0.0044565056 0.008826822 -0.0032065655 -0.006298122 0.009837084
is 0.0076450333 0.009264622 0.001212396 -0.00834877 0.00853523 -0.0040247855 0.005944333 0.0049529006 0.009435733 -0.009468705 0.009082873 -0.009683407 -0.006803129 -0.009006744 -0.0054145185 0.0071622003 0.009194542 -0.0035690793 0.003623469 -0.0041334624 0.007953301 0.0059019686 0.000113963135 -0.0036941601 -0.0073641757 0.0048082224 0.0012870857 -0.002598931 0.007774506 -0.004070869 -0.0090012 -0.0022783473 0.0002527969 -0.006903007 -0.0055349004 -0.008113168 0.00935916 0.0072068805 -0.0005220849 0.0071150647 0.008010351 -0.0009364434 0.0065907217 0.0039012025 0.0053051966 0.0071793376 -0.004899366 -0.0021927014 0.0009798675 0.004315289 0.0033950517 0.004882235 0.004600471 -0.008482051 -0.003407963 -0.007074266 0.009767812 0.005036672 7.056765e-05 0.0042915894 -0.007598174 -0.006336261 0.0032689706 0.0067222333 0.0037202826 0.00625026 -0.0018856856 -0.0029295362 -0.00017821121 -0.0029190234 -0.0056716884 -0.0075367107 0.006758066 -0.0010947386 -0.0016198395 -0.007751853 0.009463192 0.0010703927 0.001597727 0.0025670587 -0.0076157376 0.0019275406 0.0027255227 -0.0082802195 0.0047267554 0.002454152 0.007877357 0.005223859 -0.0027691107 -0.0071407137 0.0074376296 0.0020056765 0.005196017 0.0064167343 0.00220469 -0.0060037095 0.00029451636 0.008138825 -0.0060546147 0.009410899
in -0.0072929137 0.0045124535 0.002270944 0.0073096473 -0.0047485917 -0.004951868 -0.005886178 0.0038885716 -0.004800615 0.008329194 -0.0044765463 -0.009560531 -0.0047158785 0.006529165 -0.0061219 -0.005466228 -0.007282563 0.005787993 0.003309605 0.0022472271 -0.002979043 0.0061054043 -0.0060188193 -0.0020508908 -0.00612602 -0.00089156703 -0.0022086988 0.008383546 1.7468568e-05 -0.008633189 -0.0052049994 -0.00684906 0.0027834964 0.009159771 -0.005812818 0.008685679 0.008673462 -0.0072346423 -0.009067459 0.00911567 0.008465732 -0.004860924 -0.006707648 0.007935517 0.00401186 0.008063044 -0.007790036 -0.0094990935 0.0017391838 -0.009748391 -0.0048276624 -0.0036539375 0.009661325 0.008605538 -0.0030665672 0.005978176 0.008329184 -0.0022353197 0.009415343 0.007373128 0.0021602202 -0.0038856769 -0.0048447466 -0.0028517034 0.007652376 -0.0059024803 -0.0027976918 0.009629514 0.0030542857 0.006441888 -0.00824699 -0.0004533292 0.0057468596 -0.0047410037 0.0077984775 0.009492634 -0.0002711873 -0.0017879213 -0.0006985319 -0.0057123625 -0.008617674 -0.0012642267 -0.0028798261 0.0047059814 -0.0070720967 0.005439151 -0.0062974957 -0.007572375 0.008783294 0.008940259 -0.0030843222 0.003633489 -0.0058572143 -0.008728799 -0.0052426816 0.0068977242 0.006760294 0.009283641 0.0071112937 0.006706674
connected 0.0012341554 -0.009589258 0.004680272 -0.0006574712 0.00648013 0.001441613 -0.0029282987 0.0083474545 0.0013187305 -0.00015406705 -0.004729124 -0.00888176 -0.0076491544 0.008739937 -0.008741657 0.008851129 -0.0092440415 -0.0005709817 -0.0019796635 -0.009511673 0.008746755 0.0068981596 0.003105898 0.004763497 -1.6135536e-05 0.00949809 0.0068489113 -0.009914388 -0.004476947 -0.0013484486 0.0032070538 -0.0043181903 0.0015514873 -0.008137288 0.002741828 0.0050721876 0.0050605796 -0.003383798 -0.008562407 -0.009534864 -0.0006663924 -0.0074737696 -0.0067889593 0.006258581 0.007410553 0.0020833989 -0.008117018 -0.0056836717 0.00816228 0.0039932285 -0.0051518893 -0.0075348243 0.0007798394 0.0034296063 0.0019450812 0.0031995876 -0.0055045416 -0.009812234 -0.007132994 0.0004010045 0.004668724 0.0045268787 0.0020568701 0.0053307577 -0.00032548205 0.004334521 -0.009012534 0.008092677 0.00578371 0.0054194494 0.007097262 0.008681728 0.0009736284 -0.0016891512 0.0007831539 -0.009261016 0.008538284 -0.0062024114 0.008300353 -0.004183394 0.0004319186 -0.008873445 -0.009840664 -0.00751483 -0.0079071745 0.0004313312 -0.0068397326 -0.0046811607 -0.00498733 -0.004237131 0.0074429982 0.005002721 0.008725201 0.007158449 -0.0053827194 0.0074019646 -0.009008309 -0.0027462847 -0.0076679066 0.0040765405
one 0.0017455015 0.0073035434 0.0030427007 -0.007091008 0.007822227 -0.0063299094 0.00918053 0.003519673 -0.00431995 -0.0048828996 -0.004569024 -0.0065932903 0.0094839 -0.0025976489 0.0080326265 -0.009866242 0.002148838 -0.0014739564 0.0074411 -0.009639648 0.0074960026 -0.005002049 -0.0059097754 -0.0056916904 -0.0035556867 -0.0032819253 -0.0033679616 -0.007545248 0.00066779385 -0.0005829632 -0.0014779149 0.0037296985 -0.0075439285 -0.0035342867 0.005124399 0.008920148 -0.009682721 0.007026854 0.0051498893 -0.0041942773 0.008675885 -0.009360934 0.0072823255 0.005508943 0.0015510971 -0.0052537597 -0.004380159 -0.0033786031 0.0017562734 0.0016122897 0.007433787 0.00975236 0.008889577 -0.0040476085 0.009391782 -0.00051857816 0.0050126673 0.0026036 -0.0007251252 0.0038258077 -0.005196262 -0.005764686 -0.007410096 0.0021332602 0.006311188 0.001180992 0.0014289457 0.003632574 0.007748704 -0.0074001686 0.0020891938 -0.007227894 0.0039131003 0.0095624 0.007788394 0.0065975157 0.0081186425 0.0067920676 0.006722993 0.008715783 -0.0051810425 0.009406819 0.0047993697 -0.0017931815 0.008307184 0.0051063807 0.010061137 0.0030758602 0.01016113 0.0012297668 0.009503606 0.0037430911 0.006555422 -0.0035596322 0.0071290196 0.007413453 -0.0017733308 -0.0020200575 0.00367226 -0.0071036913
page 0.009652288 -0.009639348 -0.0064402977 0.0027510715 0.0065442766 -0.005642509 0.0029536278 0.009644158 -0.006991346 -0.0063426886 -0.005065254 -0.0040339604 0.0019478224 0.009791679 0.006535772 0.00024694877 0.002516596 0.008245064 0.009045822 0.0052362974 0.0060213455 -0.0075772973 -0.0037487622 -0.00573866 0.0060899393 -0.0022475377 -0.008873536 0.007583099 0.008299611 -0.003390161 0.009267497 -0.0007599199 -0.0035093161 -0.0006352016 0.00014844161 -0.0031523602 0.0029495836 0.005541658 0.006738172 -0.0091259265 -0.0021061753 -0.0055986624 0.0074604577 0.0065484075 -0.0041525317 0.0023350976 -0.006107241 0.00025502258 0.009551254 -0.002528224 -0.0050922236 -0.0075788237 -0.002916279 -0.000924907 0.0033595841 0.009919417 -0.0033577443 0.0019498969 0.0096069975 0.00168635 0.0010565431 0.00979374 0.009473192 0.007862715 -0.0063495254 0.010162037 0.0059047723 0.009399877 -0.0022861962 0.0035882434 0.0067475056 -0.0036518755 0.0068722004 0.002551895 0.009554605 -0.0029831477 -0.0029993881 0.0063554468 -0.009194347 -0.0071638674 -0.0066960435 -0.000543617 -0.002578504 0.007105003 0.009014616 -0.00090244313 0.0017770234 0.0021981448 -0.0018110881 -0.008048415 0.007746269 -0.004177991 0.004613566 0.009164478 0.0032851314 0.0032552627 0.00427618 -0.0028057583 0.0038943968 0.00029792363
can 0.0055102454 0.0057118763 0.0019716008 0.0056233415 -0.008742782 0.006169382 0.009559725 -0.003439537 0.0012759942 -0.005481845 0.00094576005 0.0022531992 0.00827182 0.00074748334 0.0027397196 0.0010744563 0.008437647 -0.005971249 -0.006331902 -0.0043252693 -0.0020902692 0.0051332535 -0.0079954695 -0.002940336 -0.008398566 0.005170676 -0.0027189783 -0.009140089 0.0039743176 0.008948267 -0.0027453846 -0.0058542527 0.003170107 -0.00081183953 -0.009977046 0.008971309 -0.007195443 -0.005184216 -0.0028696845 -0.005869325 0.0018166014 0.009507934 0.004551776 0.008304766 -0.00014016619 0.00060468004 -0.0029633725 -0.00871399 0.0036272383 0.0022045649 -0.009286515 -0.0051827133 -0.009704649 -0.005809357 0.0037901641 0.008869416 0.004244221 0.0024393175 0.008020796 -0.0008347633 -0.0013419157 -0.008790492 0.00017380233 -0.0023620662 4.056973e-05 0.0075994236 -0.006932635 -0.00338485 -0.0072087473 -0.003148436 -0.0035392547 0.0024675517 0.0036297394 -0.0049559814 -0.004192065 0.0012163485 0.0056222915 0.005685552 -0.0031655477 -0.0042053093 -0.005955915 -0.00016538615 0.0015441672 0.0019533348 0.00705408 -0.0026320752 0.0005048164 -0.005300183 -0.00079187815 -0.0076735783 -0.00043766233 0.0014502904 -0.0086597325 0.008799461 -0.008895945 -0.009412118 -0.008139761 0.007102367 0.005604268 0.009186845
select 0.0025146564 0.0009818511 -0.0024718002 0.009316303 0.0028593396 0.0038750586 -0.0009775545 0.0013483935 0.0064523406 -0.0009113494 0.003275267 -0.0009595236 0.005329709 0.0037528395 0.0026802267 -0.005448236 -0.00467415 0.004149128 -0.005968017 -0.00053134334 -0.00055865105 0.0035270022 -0.008390155 0.008742682 -0.0015530752 -0.005343646 0.0039461465 -0.0019787732 -0.00785187 -0.0045482847 -0.00025478116 -0.008977358 0.00068253215 0.0022115083 -0.0032379287 0.0028584132 0.0025870104 0.009821337 0.0013010249 0.0018270056 0.0028296746 -0.0022008626 -0.008718088 0.008113879 -0.0018064249 -0.009698964 -0.006700865 -0.003928474 0.0040414855 0.005120319 0.006160201 -0.006909194 0.0006808687 -0.0028294446 -0.0053338627 0.0071271705 0.0040114005 -0.003045499 -0.008351047 -0.0049832184 -0.0006181903 0.007810971 0.006214479 -0.008312971 -0.00973683 0.007300491 -0.0022814872 -0.0034143012 0.005450147 -0.005638745 0.004980258 -4.149874e-05 -0.00669078 -0.0003391888 0.0065908926 0.00932947 0.002299191 0.0052091107 -0.005098693 -0.00073184835 -0.0054860627 0.0013848061 -0.001990161 -0.0033694066 -0.0071972976 0.009679752 0.0032794825 -0.0021202862 -0.003971969 0.0077152513 -0.0062044617 0.003219955 0.00077886536 0.00838381 0.0070368345 -0.0028262504 0.0027130991 -0.0017721561 -0.0093834335 -0.002655892
if 0.0012375361 0.006718496 0.010124826 0.008944586 -0.007890528 0.006175597 -0.005486982 -0.00042788583 0.00022446018 0.006439553 0.0042878184 0.004191263 0.0095948195 0.00046142482 -0.005860706 -0.0065188613 0.0064257495 -0.0054829186 -0.0028599342 0.003537531 -0.0021143572 -0.00595042 -0.0021680116 0.0011509818 0.0019877169 0.006142174 -0.0053431774 0.0030220745 0.0072172796 0.0021859072 0.005585941 -0.004836141 0.006283418 -0.007815951 0.0035202464 -0.008948665 -0.0025011993 -0.009241774 -0.001743269 -0.005637288 -0.003879549 0.0010041087 0.0028040672 -0.001348796 -0.007985744 -0.005976264 0.0005976723 -0.00390424 -0.009334368 -0.0007324663 0.0067533273 0.005801163 -0.009868855 0.0030576244 -0.006160438 -0.008984437 0.0002927373 -0.0003336882 -0.007051667 -0.0060570436 -0.0024160165 0.007039106 -0.007364909 0.007869988 -0.00072102033 0.0013382746 0.009548558 0.005151889 -0.0039627305 0.0040229824 0.0033329932 0.006575433 0.00030771366 -0.004445377 0.0015821656 -0.0053598145 0.00154933 0.005139203 0.0050063743 0.009239637 -0.0077659236 -0.005112072 0.0061790436 0.0016839695 -0.0068279286 0.00094786333 0.0030874242 -0.0022925742 -0.0046394034 0.0049843094 0.010040938 -0.007310026 -0.0001951962 -0.0025703453 -0.006149755 -0.0012256751 -0.0049133305 0.00893409 -0.005688405 0.0036461803
first -0.00032097008 0.0044961837 0.0022578367 0.009822677 0.0007904938 -0.0058596306 -0.0009891215 0.0027217849 -0.0037022794 -0.008009097 -0.0057971496 -0.00723726 0.0064700935 0.004044786 0.008431455 0.0063028303 -0.0061349687 0.0024473474 0.008448697 0.0008588594 0.0032586057 0.0058764284 -0.00864058 0.009077848 0.006602907 0.00859774 -0.008409343 0.0061517213 0.0066152075 -0.0013725564 -0.006071401 0.0053299232 -0.0067251236 -0.0055974307 0.0035293056 0.008466665 0.00883702 -0.004596523 -0.009419659 0.0092623755 0.0063085477 -0.004151239 -0.008467615 -0.004504823 -0.0037110946 -0.0033531617 0.0005767747 -0.00023305493 -0.0029716464 -0.0059370766 0.00948079 -0.004931018 -0.007224372 0.007641715 0.002333142 0.008776486 -0.004321472 -0.0068776594 0.0008934302 -0.00091420463 -0.009339503 -0.0016611663 0.003285977 0.0067739855 0.0065639196 0.0034949547 -0.0043266485 -0.0013425663 -0.0043771393 0.006118463 -0.006554778 0.0024014218 -0.0010759793 -0.0058033057 -0.0070108795 0.005991606 -0.008164501 -0.0004558883 0.0026626766 0.007800555 -0.007558845 0.0036473202 0.009433325 -0.0066291085 -0.003776247 0.005254762 0.0056893 0.0018481741 0.008344038 0.0008986796 0.0023778938 -0.0014724688 -0.0082473345 0.0032608316 0.0022477154 -0.008555985 -0.00027174177 -7.891308e-05 0.00010736678 0.0086210985
account -0.0025085774 -0.0058123437 0.0074939607 -0.0072931466 -0.008941073 -0.0019100663 -0.008325972 0.00056108326 0.0018180059 -0.0025284619 -0.0065077627 -0.00044442213 -0.0010901346 0.0034953672 0.008216009 0.0058178105 0.008471203 -0.009048259 0.0094060525 -0.0025967506 0.008709866 0.002412105 0.003636724 -0.009614804 -0.009544814 0.009041536 -0.0029699034 0.0028004043 0.0064179855 -0.00027078818 0.009799791 -0.0010526943 -0.009653243 -0.007185169 -0.001067782 -0.0085767275 0.0074395435 0.0035804578 -0.0087920865 0.008334215 0.00893518 0.00578235 0.006933107 -0.00951252 0.0005781063 -0.009248868 -0.0037312377 0.0002264705 -0.00023661095 0.0014751024 0.003281193 0.0020581116 0.005329871 0.0075198365 -0.005956181 0.007950141 0.0060373927 0.009793864 0.004560714 -0.0032851296 -0.003709696 -0.00066108425 -0.0015900767 0.009941122 0.0010405561 0.004130416 0.0035008967 -0.008711791 0.0065900106 0.008296161 -0.001725611 0.0024131674 -0.0064236713 -0.006093267 0.008299395 -0.002974373 0.006763439 0.0016503802 -0.0020134915 0.0030422723 -0.004067693 -0.0017179702 0.0012883557 0.004975075 -0.0014350566 0.00064636226 -0.007818064 0.009586594 -0.008677762 0.007095514 0.0040282137 -0.0069390447 -0.0052930824 -0.007932738 -0.005011587 0.0071017845 0.00973539 0.0020872783 0.00067015673 0.009500602
get -0.0050598024 -0.0010496727 0.0034157583 -0.0065276385 -0.009522722 -0.009633808 0.009261969 0.006030528 -0.005105766 -0.008525934 0.0011366612 0.0024343631 -0.001147036 0.00140011 -0.0041010743 0.004625717 0.001500975 0.0085875895 -0.0100360885 -0.0059249657 -0.008916319 -0.00026647668 -0.007734256 0.004920162 -0.006600449 -0.0059060166 0.004883409 -0.008214677 0.0013956053 -0.007242315 0.010097116 0.008615337 0.0018884166 0.0054723485 0.0046030064 -0.0055471165 0.009876701 -0.009874784 0.007872163 0.0023881614 -0.0029907227 -0.0037755081 0.009078105 -0.005242236 0.008445622 -0.0060907924 0.00814418 -0.0005021244 0.008096192 -0.0030677228 0.0060777287 0.008630482 0.0025714266 0.0012998241 0.004827738 0.008178453 0.008720889 0.008561776 0.006921269 0.008270379 0.008667447 -9.983376e-05 -0.0007560549 0.0018722671 -0.00028052146 0.0009760433 -0.008460372 -0.009120704 -0.0027669098 0.009270937 -0.0038536007 -0.006699285 0.0051091863 0.0010466797 0.0021721139 0.003759885 0.0036208592 0.0060380087 0.0010879427 0.00086905225 0.008777515 0.0031257623 -0.0050424435 0.0069586164 0.0049908888 0.0029639448 -0.002656741 0.003610097 0.006750551 0.007129353 0.0014148146 -0.008417323 0.00020210119 0.0003877365 0.0042253556 -0.009315245 0.01000997 -0.0071637095 0.005878234 -0.00948862
second 0.009616493 0.0074628703 0.0013137996 -0.0034590447 -0.00029669056 0.0001442198 -0.006197529 0.0062969676 0.0021420785 0.003601706 -0.0073221806 0.008160151 0.00057595124 -0.000107036234 -0.008974213 0.0039044658 0.006787798 0.007117897 -0.006488973 -0.008389461 -0.0054363403 -0.0005780788 -0.008197068 -0.008313057 -0.002069339 0.0011559697 -0.009631249 -0.003715305 0.00059137976 0.0067939414 0.0019065746 -0.00067789835 -0.0073207235 -0.007023977 -0.00070664455 0.007833701 0.005545033 -0.0016711376 0.0009413889 -0.009855016 -0.0013500273 -0.0047790045 0.0057810564 -0.0021993606 -0.00454254 -0.0095487395 -0.0013634537 -0.007197301 -0.0015922944 -0.0039453297 -0.0022803636 -0.0034329833 -0.008164688 -0.0012738925 0.001497231 -0.0038804258 -0.0075466433 -0.0035245623 -0.00915139 -0.0005834527 0.005905962 -0.0029902835 0.003356716 0.0051794224 0.0082288375 0.005855016 0.00960454 -0.009265787 -0.008327792 -0.006516122 -0.007629946 -0.0077193268 -0.007596568 -0.0029408613 0.0016372824 -0.0028738966 -0.008699263 0.005185445 0.0007185503 0.0046553784 0.00696783 0.007955805 -0.0010477292 0.003923852 -0.0053472826 0.0019792563 0.0049096607 0.01005945 -0.002951039 0.0028687892 -0.0053887824 -0.0021340223 0.008104032 -0.0038487555 -0.0009105322 -0.0091852825 -0.009211476 0.008732686 -0.0056418227 0.0050106924
app -0.0070096212 -0.0022993227 -0.00797604 0.0074095717 0.00619532 0.005040665 0.008445448 -0.00042572082 -0.009449128 0.009061962 -0.005034342 0.007624928 0.005567829 -0.0010634202 -0.0075723543 -0.0015914091 0.006232584 -0.007083983 0.0014322478 -0.008229453 0.008767007 -0.0028214518 0.009551378 -0.005734245 -0.009793665 -0.008572964 -0.0041586407 0.0047459966 -0.00024042661 0.009200078 0.0032039692 0.0037481394 0.0030692352 0.008016251 -0.0023768346 0.007599977 -0.009468218 0.002822744 -0.0008047351 0.00032200225 0.006853459 -0.0029225263 -0.002399164 -2.4764413e-05 -0.00038192142 -0.0035910215 0.0061192056 -0.0065181325 0.007936873 -8.8679575e-05 0.0026406907 0.0031119029 -0.0002570185 0.0017148543 -0.003255817 0.004871364 0.00034444508 -0.0033129458 -0.00873201 -0.009844988 0.00032051333 -0.0057682456 -0.0009971621 -0.0041346634 -0.008776134 0.001210408 0.0059344787 -0.0019636396 -0.0073607746 0.0033167878 -0.0005318793 -0.0053868815 -0.0009522776 -0.0006217338 -0.0030742518 -0.009879581 0.0077230968 0.0038448777 -0.0026010673 0.0073285354 0.00027708328 0.0073484913 -0.0017425744 0.0076489025 -0.00015906368 -0.0060235173 -0.0045150775 0.009729116 0.0007595746 0.0010470394 0.008642329 -0.006219228 -0.0018325845 -0.008219057 -0.0065299487 -0.008485013 0.004161751 0.0026845022 0.005613154 0.0025274619
after 0.0020601372 0.0058839153 -0.0020696432 0.003115616 0.008557451 8.2015475e-05 0.0065099113 -0.0062070074 0.006310272 0.004485843 0.004999431 -0.010307527 -0.0003748172 0.0033191345 -0.0057066474 -0.0068602255 0.0064136754 -0.00703607 -0.0052338396 0.00758033 -0.006922681 0.008623777 0.00074546726 0.0043238997 -0.0031163536 -0.0054049087 -0.009100989 -0.00065379485 -0.0051866514 -0.0031121532 0.008296578 -0.0076523023 -0.0062040105 -0.005574995 -0.0066715674 -0.008496044 -0.0010009235 0.009275344 0.007867358 -0.0055783587 -0.00806733 -0.0024045291 -0.009296761 -0.00491469 -0.0057269926 0.0029924794 -0.0077726715 0.0012414411 0.002414627 0.005424507 -0.001975862 -0.009942025 0.0052207233 -0.0059671164 0.0047378168 0.0020984043 0.008892862 0.0015731568 -0.001952349 0.006687433 -0.007016849 -0.008397085 0.004011615 -0.0024455448 -0.004440963 -0.0017105598 -0.009783796 0.00062785717 -0.0014109752 -0.002683078 0.002385158 0.0049493266 0.006583719 -0.007891564 -0.004737793 -0.00872351 -0.008843205 -0.003569579 -0.0014404737 -0.008180689 -0.005606106 -0.0018694737 0.006074167 0.0018587103 0.008093237 -0.00829852 -0.0042083366 -0.00059991877 0.009046995 0.0011465324 0.001899416 0.0014562063 0.0029364878 -0.009321932 0.0035263004 0.0055967476 0.0055513014 0.004302582 -0.008028275 -0.0041109878
list 0.008280461 -0.000362778 -0.0093634855 0.0047197104 -0.0058789817 0.006336937 0.0056044073 -0.0044490066 0.002360987 0.00518976 -0.0036665709 -0.0019230975 0.009272285 0.009218168 -0.00920725 0.0073774448 0.009916188 -0.003056716 0.0023739797 -0.003293698 0.008785274 -0.00021467074 0.0056988024 0.009151824 0.0039773607 -0.007107154 -0.002066134 0.0009226938 0.0019469975 0.0028711115 0.009678365 0.0044138073 0.0100372415 -0.0089342445 -0.005776286 0.0023720895 0.0038176153 -0.0011760775 -0.007065283 -0.003497392 -0.008408754 0.00928202 0.0036923343 -0.0077950037 0.0034274212 0.0041543315 -0.005835663 -0.005857678 0.0011936731 0.009033285 -0.00955077 -0.0001937728 -0.006879934 -0.0010034749 0.002862385 -0.0048559434 -0.0026968662 0.00070175267 -0.0064299903 0.0075112516 0.0044645243 -0.008548734 -0.0019120902 0.0033282584 -0.008541176 -0.0068333345 -0.008365347 -0.005089565 0.008452501 0.0073760916 0.0027587689 -0.008330096 0.0059843627 0.0046477956 0.00039371362 -0.008781942 -0.0017512897 0.0003873566 -0.007906391 0.0025199603 0.00022617505 -0.0068025813 -0.008567037 0.0063874274 -0.008579328 -0.005526138 0.006029367 -0.00028559475 -0.0027583495 -0.005196884 -0.0008005714 0.005394918 -0.005951375 -0.0049090944 -0.004692224 -0.0046065305 -0.0077212937 -0.009851996 0.007652112 0.007930174
of -0.0043382724 -0.009080047 -0.001769168 -0.003802349 0.009193767 0.0026271096 -0.0058122743 -0.0028874278 -0.010135728 0.0017884212 -0.004090672 -0.0030594415 0.0052776774 0.007676605 0.004562962 -0.0069891987 0.006739736 -0.00980502 -0.007045269 -0.008490971 -0.0021744294 0.00054195256 -0.0036837852 0.0017506273 0.009045243 0.0067495615 -0.0012277879 0.009067952 0.0015301035 -0.002011014 -0.0064168684 0.0064446237 -0.008988925 -0.0021415427 0.0076749534 -0.0022776297 0.0017085564 -0.007449388 0.0048286063 0.007108081 -0.009249615 -0.0033947753 0.007895099 0.0030444306 0.0002323853 0.00029827276 -0.010040743 0.0099343145 -0.0018969646 -0.004840445 0.0027942301 0.0008871024 -0.005931559 0.0057732784 -0.002689936 -0.0060528726 0.007356061 0.006508059 0.0087484475 0.0013366605 0.0005859509 -0.007961492 0.004819753 0.009541403 -0.0008586273 -0.0015285622 -0.0036866018 -0.00011658355 -0.0079507055 0.00593566 0.0013250379 0.0095027 -0.0062188255 -0.005088209 -0.0060207583 -0.0071607903 0.0028422263 0.005114477 0.001232158 0.0035646951 -0.009615049 -0.0008496342 -0.007984331 0.0032504222 -0.0028233486 0.008924559 -0.0030858852 0.0070141437 0.00438678 0.0013876123 0.00026543692 0.008270324 0.0023271658 0.008271418 0.003593049 0.00554156 0.0053665615 -0.007719858 -0.0057417173 0.0011734581
when 0.00013065348 0.0023398506 0.0011587247 0.0075159017 -0.004299852 -5.614645e-05 0.0072250143 0.0028789677 0.003951043 0.0041059027 -0.0013819691 -0.008778117 0.0031496885 -0.008753152 -0.00249308 -0.009565506 -0.00043720013 -0.008169856 0.0073008365 -0.005498436 0.010047515 -0.008980796 -0.00415957 0.0018516507 -0.0031779138 0.0014975328 -0.0038236503 -0.00090379926 -0.0057826517 -0.009872549 0.0065861987 0.00038390476 0.0066459584 -0.0077653923 0.0036295298 -0.009484376 0.0078013744 0.0057127615 -0.006355817 0.007908841 -0.005510793 -0.008734523 0.0014820906 0.003312449 -0.007830592 -0.008994738 0.008973546 0.0016686107 0.0010104328 0.0025552008 -0.003436967 0.0015211852 0.0019747827 0.009770092 -0.005832363 0.002443804 0.0064116255 -0.0066102 -0.009065109 0.008855652 0.006910192 -0.0040630735 0.005978127 0.0009882376 -0.005264935 -0.0010839191 -0.0047625042 0.006588654 0.0015337961 -0.007989632 -0.00032799816 -0.0024031503 0.0068473234 -0.0011371609 0.007925832 0.0020459623 -0.0036996272 0.008383045 0.0027764607 -0.0039008306 -0.0058427695 -0.0028030134 -0.005439134 0.003801125 -0.0095521975 -0.0057833423 0.0037775398 0.00043468078 0.0062834364 -0.0035613389 0.00038513727 0.002608576 0.0054197544 0.00164108 0.010104797 0.003858395 -0.0068393736 -0.0015570172 -0.008275068 -0.0053501194
which -0.0022400545 -0.009606495 0.009324199 0.001987687 -0.0010683902 -0.0057054507 -0.008359434 -0.009546718 0.0088032875 -0.0026108352 0.0045035505 -0.0047815344 0.010043082 0.0037245974 0.0011046664 -0.0041669984 0.0012226782 -0.002806936 0.0072935717 0.0041625733 0.0010373646 0.0035091662 0.0037776008 -0.0068423594 0.0088219335 0.0017532639 -0.005863218 0.008642988 -0.0013599297 0.008168036 -0.0013793259 0.0069491626 0.002826732 -0.0045282375 -0.0037887506 0.009438163 0.0016585586 -0.006094072 0.00020646896 -0.0021068559 0.0016305227 -0.0078009823 0.0073347804 0.0013932617 0.007996447 0.004432813 -0.004501263 0.003730843 -0.0005896919 -0.009785847 0.008306928 0.009503718 0.009656678 -0.0038303845 -0.008556348 0.004953903 -0.007624321 0.0085749505 0.0026776376 0.00571662 0.006120813 0.00043957378 -0.001987497 0.00088291976 0.009688004 -0.0069886665 -0.0015047757 -0.0021396857 0.0046518566 0.006615461 -0.0042010513 0.0037946538 -0.004332984 0.0032529414 0.008359167 0.0036455535 -0.004481973 -0.0028935466 0.0077510234 0.0096674245 0.0056727 -0.0030886063 -0.0019903283 -0.006073063 -0.004457748 0.0033734199 -0.0062655318 -0.006462412 0.008258404 0.009485813 0.008377998 0.0015838561 -0.008778305 -0.007584926 0.0017465223 -0.009467847 -0.0072276057 0.0019390977 -0.0028708847 -0.009190484
setup 0.0063470285 -0.008695699 -0.0072486936 -0.0018632462 0.0018900344 -0.0014014157 -0.004974591 0.0072592334 0.008473692 -0.007603543 0.009651823 0.006870549 -0.007372568 -0.0017379378 0.004423465 0.0068069305 -0.0036404505 -0.007231221 0.00467921 -0.009721635 -0.005678271 -0.0012141318 0.00568774 -0.0057519437 0.004557876 -0.00041192214 0.002488226 0.006394652 0.0013721335 0.007658959 -8.5132444e-05 -0.008296089 0.009333423 -0.005193091 0.0047238297 -0.0034718392 -0.0071718465 -0.0067294035 0.0044445237 -0.0009937171 0.0014988434 -0.009111914 -0.005174577 -0.0058398824 0.0086974045 -0.008713521 0.004757002 -0.0008456466 0.00036198273 0.008879123 -0.0035035317 -0.0071486235 0.00076501933 0.0076846285 0.008895108 -0.0034970357 0.0029097626 0.0049663037 -0.0053953645 0.0071197483 -0.0063816765 0.0020804114 0.004854192 0.004606127 -0.0049778232 0.0029112713 0.0074306047 0.009154638 -0.010003773 0.0059348894 0.004743163 -0.0013139967 0.009483557 -0.004168885 -0.001467063 -0.0068047373 -0.003620547 0.00050209614 -0.0034662655 -0.0053895074 0.006250846 -0.0049547805 -0.0066962023 0.00802678 0.009400509 0.0040745647 0.0004948093 0.0009956792 -0.0005998326 0.0068980246 -0.0057698996 0.0006243763 0.0042400435 -0.002085612 0.0011810807 0.003890261 0.010082495 0.002010181 0.009573566 -0.00589625
click 0.0047808858 -0.003474584 -0.0042212685 0.0011784706 -0.004053939 -0.0058401497 0.0032944523 0.008689317 -0.006667373 -0.00920222 -0.0033844293 0.007281782 -0.0096296305 0.0096542705 -0.0003529041 0.002168667 -0.0018326251 -0.005904496 0.0030932915 0.0058541903 -0.006983936 -0.0011472453 0.0016579665 0.004213399 0.007028584 -0.003535487 0.007143086 -0.0055494905 -0.0022079577 0.009067882 0.0054948707 -0.008506234 -0.001563153 -0.009004327 -0.0016135221 0.0058767446 -0.007351598 0.0053962003 0.0059568537 -0.003937677 -0.009642311 -0.0026484898 -0.0025708654 0.0038189597 0.009059559 0.001959049 -0.0022413922 0.0030090692 -0.006745204 -0.0012328441 -0.0014291059 0.009507001 -0.005807819 -0.0070554838 0.002243691 0.0027686157 -0.0070428676 -0.0058715036 -0.0012458519 -0.0031480659 -0.008949056 -0.004097076 -0.0028056465 0.0066435183 0.00082452997 0.0017441367 0.00033966312 -0.0031153138 0.0028447947 0.00088388147 0.005855512 -0.0006274455 -0.008715163 0.00085340353 0.010071145 -0.005217035 -0.0051423996 -0.002369428 0.008474976 -0.000791303 0.009228571 -0.008134035 0.008814666 -0.0094886515 0.009076271 0.0019294504 0.0029217042 -0.0057662935 0.008629945 0.0060695047 -0.005253767 -0.009455854 0.006911514 -0.00554671 -0.009140823 0.0026594417 -0.004804473 -0.0074190847 0.009736965 -0.0015972224
lead -0.0015451165 -0.003896143 -0.0043407483 -0.004691913 -0.0054722107 -0.005574497 -0.007831949 0.009976319 0.0062624267 -0.0037915118 0.002405878 -0.007948286 0.007643111 0.008410275 0.0009422678 -0.0069830874 -0.0029355397 0.004557078 -0.003017743 0.0027882715 0.009512753 0.0043612984 -0.005098694 0.005445248 -0.0029691544 -0.006395267 0.0069353827 -0.009297412 -0.0011886497 -0.0014395119 -0.008285819 -0.0011039588 0.0057017826 -0.0054703597 -0.007027985 0.0064855735 -0.003311804 -0.007981745 0.00018447873 -0.0002418148 0.0076036192 0.00044986047 0.007870623 -0.009761507 0.0042211185 0.0062202252 0.00089046906 -0.0028048982 0.0010963512 -0.00076086074 -0.008017179 -0.0069531123 0.0012165828 -0.0020557933 0.0093806395 -0.0008163909 0.0061427685 0.002113299 0.008024311 -0.009124341 0.0024625955 -0.0014648908 0.0023018883 -5.3884698e-05 -0.006764139 0.009232972 -0.0027813087 0.002206056 -0.0067414176 0.0039088572 0.009891244 -0.00097197614 0.0067618773 -0.00018980725 0.008157186 0.009680163 -0.00029435183 -0.0015356385 -0.009607383 0.009932924 -0.0027152163 0.0023805113 -0.0019205377 0.008575776 0.0081843985 0.0015716976 0.0032257275 0.006582611 0.0024736258 0.006402365 0.00042409735 -0.0022184225 0.0053149397 -0.0033609965 -0.0024015869 0.008873212 -0.008959922 -0.003541492 -0.0028669864 0.0056384834
any 0.007911404 -0.0063071745 0.005853803 -0.00031341452 -0.008951161 -0.0026030235 -0.001497847 -0.004193671 -0.0009277159 -0.0053145043 0.005854398 0.009095996 -0.0015285052 0.0034237532 -0.00064206874 -0.00077267666 -0.00700959 0.0013682857 0.00387582 0.0066176783 0.0066191363 0.0035701683 0.0047194986 -0.0074801743 -0.0014748847 -0.0057291957 0.0067266617 0.0077865045 -0.004286755 0.0011402431 0.0051819324 0.0018161155 0.00083513465 -0.0068527344 0.009847818 -0.007082048 -0.005975899 -0.0057249567 -0.0064121587 -0.0036102994 -0.009365602 0.0011097302 -0.0037517275 -0.0024549307 0.0058967555 0.0035551235 0.0017270638 -0.0013548953 0.009934215 0.00030305906 0.005040184 0.008983644 -0.0097357845 -0.009181651 0.009871278 0.0028002718 -0.0018202167 0.004743554 -0.004352807 -0.006296419 -0.008236014 0.0072005424 -0.0023657319 -0.0074681486 -0.0060118022 0.0062994203 -0.0024425215 -0.0059709107 -0.0017669641 -0.0013307603 -0.003343323 -0.0019961644 0.0041950545 0.001456842 -0.0033878838 0.0027604564 0.0053234287 -0.009102669 -0.0076050274 0.006330567 -0.009033082 0.0006498072 -0.009143002 0.008500166 -0.004378927 -0.0065603903 -0.0012101553 -0.001001292 0.007696849 0.009125895 -0.00014832968 0.0027588087 0.0047272695 0.00015516231 -0.005674027 -0.0005201712 0.0023382143 0.008235121 -0.0035545512 -0.009907997
3ed 0.005309863 0.009999555 -0.0069913412 -0.0006476471 -0.004979717 0.0061787385 0.009775338 3.2424272e-05 0.0049525597 0.0064106025 0.0042790687 -0.008280293 0.0031512082 -0.0014510138 -0.0020032823 0.0052664373 -0.0013195178 0.009757974 -0.00067323673 -0.0001287351 -0.002252454 -0.008477058 -0.009715225 0.0049073147 -0.006766947 0.003012771 0.0026308207 -0.0070231305 -0.0031791464 -0.0057920255 -0.008413018 1.733803e-06 0.009909482 -0.0068595 -0.0043671886 0.008602647 0.009360836 0.009733625 -0.010037062 0.004848323 -0.0066356948 0.0067486297 0.0060848654 -0.0032883596 0.0070132455 -0.007907551 0.0044685206 0.0045915586 0.005964319 0.005951177 -0.0026027344 0.0037648373 -0.0060927705 -0.006512506 0.0026492309 -0.009331876 -0.0002756909 0.0011285044 0.007919233 -0.006875438 -0.0023055181 -0.0041392148 -0.005093605 -0.00032002872 0.004479073 -0.004806403 -0.0015608286 0.008910974 -0.0015740063 -0.003374466 0.0073232674 0.0013936781 -0.00018476682 0.009437614 0.008309918 0.0034881851 0.0034085498 -0.0021536045 0.007994877 0.0051120347 -0.0055726254 -0.0059260037 -0.00078327727 -0.0077254446 0.0032426515 -0.009210848 -0.0012688522 0.0035189893 0.0032313692 0.003163699 -0.008776476 0.0034583516 0.0053233104 0.0034558875 0.007987167 0.0017022762 0.0064811707 0.008766476 -0.00091494067 -0.0008539633
by 0.0021618055 -0.007363556 0.005685015 -0.0050249314 -0.003181922 -0.0021241605 0.008389334 0.0027140875 -0.0011428321 -0.002978371 -0.002213239 -0.001586755 -0.005012515 -0.004043072 0.0003065988 0.004407885 0.0018470578 0.006684391 0.00059757585 -0.0036885478 -0.0072622914 0.006045914 0.007073963 -0.006111853 0.0045702104 0.009516094 -0.006540504 -0.0028899417 -0.009136577 0.0032282893 -0.0032693879 0.002005078 0.009564878 -0.008603693 -0.009330293 0.002030135 -0.007944623 -0.009210742 -0.0095232 -0.0005232826 -0.0010695675 0.0005805229 -0.0013618469 0.009156055 0.0089691505 -0.006418905 0.008533999 -0.009002021 -0.001263489 0.0026172525 -2.6329291e-05 -0.003929063 0.00045492855 0.0009887903 -0.009549273 -0.0047514257 -0.007636064 0.0038417198 -0.0010018875 -0.00729092 0.0056699165 0.00019062692 0.0028850483 0.0056138746 -0.0044111703 0.008034644 -0.007755349 -0.0031127674 -0.0076975715 0.0012221545 -0.007536167 0.009267975 0.0057314923 -0.007278407 0.0064090197 0.006636897 -0.007331943 0.0048560007 -0.007842998 0.009359096 0.0044820225 1.5818774e-05 -0.009160228 -0.0006259414 -0.00045239305 0.00094977795 0.009004109 -0.002578267 -0.008436806 -0.008821509 -0.000758469 0.0014643308 5.767616e-05 -0.0022000312 0.00877299 0.00016717607 0.0066564335 0.0038895034 -0.0071566734 -0.0021350014
know -0.007844673 -0.006516054 -0.0030595905 0.006461941 -0.00067649153 0.0085222265 -0.0020670164 -0.004714066 0.003637995 0.0019767676 -0.00038512272 -0.002866548 -0.005959227 0.0041442765 -0.007382642 -0.009079139 -0.009158561 0.008176855 0.003946031 0.0064543835 0.010048377 -0.0071817795 0.0041726097 0.0027930278 0.0059621595 -0.0033323762 0.009198352 -0.005868923 0.00700583 0.006922258 -0.00017084982 0.0050742785 0.006757641 0.0012629707 0.00737823 0.002790045 -0.0013802017 0.0072262413 0.0044847582 -0.003483978 0.00173032 -0.0002921782 0.0050130603 -0.005297118 -0.003931742 -0.000990464 0.0036387236 -0.006509822 0.007958334 -0.0029661811 0.0057833237 0.0026570566 0.006864443 -0.0045391866 -0.0034080518 0.0031959892 -0.00269458 0.0060265455 -0.006029858 0.0027988746 -0.00063330797 -0.0006313486 0.002743228 -0.0020052143 -0.0044515845 -0.008282447 0.00261776 0.0057838284 -0.0062739523 0.00940623 0.0038905186 -0.0049014473 -0.0011071094 0.003917917 -0.006770368 0.0021868234 0.0056271884 0.0064677396 0.0053087114 0.003708354 -0.0030139352 -0.0058092475 0.007852145 -0.006993785 -0.0018334376 -0.0031770822 0.006953871 -0.0061079054 0.0036708226 0.0020847996 -0.003675817 -0.008162295 -0.00809981 0.0035792312 -0.009296466 0.005823022 -0.0026025935 -0.009367236 -0.0050630127 0.0076791253
password -0.0017622467 0.006477021 -0.009255226 -0.009198461 -0.005111224 0.0007819606 -0.007009526 -0.009100294 -0.009027626 -0.00055704033 0.007357284 -0.008615915 -0.0052677146 0.0015884677 0.0033751419 -0.008579932 0.007890461 -0.008391921 0.004722256 0.009079687 0.0057564178 0.0062247207 0.008323235 0.0033767135 -0.0072305044 0.0057223937 -0.008392065 -0.005771157 0.0058188355 -0.00794753 -0.005718856 -0.003570986 0.0034771946 0.005040432 0.002027316 0.005354871 -0.0025720843 0.0042351736 -0.0071681584 -0.0018369918 -0.0077060573 7.829508e-05 0.0046417634 0.0049002618 -0.004520481 0.0017192018 0.0076559554 -0.0055756764 -0.003695864 -0.00054586475 -0.004669921 0.008591977 0.0075402013 0.009201572 0.009290754 -0.008347039 -0.00042197172 -0.007582907 -0.0049236384 -0.008688073 0.0034400725 8.951959e-05 -0.006755334 0.008070232 0.00077489816 0.00043958327 -0.0035515055 -0.0031302525 -0.0028873533 0.007814881 0.0023101277 -0.0049907397 0.0048700646 0.0009789998 -0.0025554074 0.0076935594 -0.0038680562 0.0075329556 -0.004332363 -0.007332746 -0.004632106 -0.0037297297 -0.0008784347 -0.0016165252 0.004933469 0.005460242 -0.0015010661 0.003902638 -0.0018518324 0.0007453266 -0.0010911863 -0.0023767753 -0.004704194 -0.004246561 0.0002863216 0.0017162691 -0.009287707 0.0059971185 -0.0016252567 -0.003017737
play -0.00483562 -0.0041996497 -0.0047763907 -0.009850893 -0.0007297655 -0.0079781795 -0.004741402 -0.0071122223 0.009826242 -0.0014443882 -0.007820408 0.005347004 -0.008025645 -0.0018754678 0.0028275636 -0.0071633244 -0.008706686 -0.0067332396 0.0074637663 0.008804091 0.00405934 0.002424183 0.0041989977 -0.004082735 0.009715115 0.006929382 0.0040482986 0.008938641 -0.008413982 0.0009229855 0.008979552 -0.00092143856 -0.006680385 -0.0023770256 -0.0027889665 -0.0023178363 -0.0017972816 0.0071965293 -0.0003835049 0.004088691 -0.003733258 0.00817077 -0.0065209274 -0.009333301 -0.004032385 -0.007366175 -0.004972506 0.00052420545 0.0024022318 0.0017752779 0.0050371676 -0.0014878691 0.0022871264 0.0003453976 0.0077591925 0.008083343 -0.001946424 0.001274421 -0.006082639 -0.0046496317 -0.0069398344 -3.1109237e-05 -0.004830944 -0.0039685047 0.0014064763 0.0027356343 -0.009078229 0.0019265413 0.004966521 0.004321911 -0.0029889022 0.009617408 0.0095460415 -5.7124096e-05 0.0009801748 -0.009184843 -0.0047629564 -8.173677e-06 0.003993831 0.00017600325 -0.00884287 0.005948644 -0.007555068 0.008694109 0.0054270625 -0.0067515145 0.0030549108 0.007804582 -0.0059930026 -0.0065419707 0.009357391 0.001841897 0.009683619 -0.009900549 -0.0013885284 0.006946123 -0.0013198763 -0.0018174612 -0.0070650117 -0.0056762695
that -0.006575923 0.009022718 -0.0015243887 -0.008332184 0.0080819065 -0.003107807 -0.0012355752 -0.00040773946 0.0027325377 -0.0048151566 -0.00031900994 -0.0030398357 0.008868858 0.006886772 0.0011909249 -0.006169565 0.0031913223 0.0009822692 -0.00617001 -0.0060011824 -0.003049309 0.0024643568 -0.008073544 -0.005018261 0.008053665 -0.0036355793 0.007872023 0.0004961724 -0.0055604717 -0.0049655656 -0.00015854489 0.004577632 -0.006052792 -0.0056640706 -0.006829455 0.006932982 -0.0023696132 0.00390231 -0.0016855376 -0.00757525 -0.0012319322 0.0003300556 0.003598267 -0.00860921 -0.006706856 -0.0065867384 0.0028898031 -0.003757676 0.0010545441 0.004186905 0.0045948494 0.0022620559 -0.0029045208 0.0006060899 -0.0054927557 -0.0062951576 0.008748172 -0.00401752 -0.009390781 0.0037873762 0.008483086 -0.0001771944 0.0023448186 -0.003443726 -0.004282899 -0.008511853 -0.007801036 -0.008882674 -0.0061508846 0.0086177625 0.009429964 -0.0015220052 0.00012789133 0.007845665 0.0014117857 -0.005134225 0.0026846768 0.0018725363 -0.0038136984 -0.0048341523 0.00955018 0.0077601117 -0.008698654 -0.005381561 0.0013343458 0.00091814745 -0.00815755 0.009470657 -0.0052912873 0.0046122866 0.009455208 0.001164002 0.0042497655 -0.0026858312 -0.009506949 0.00068301277 -0.0009281621 -0.009979713 0.007025585 -0.0074337767
need 0.005086696 -0.0042510615 -0.009128732 -0.009185553 0.0063555827 -0.005482982 0.005370517 -0.0011947037 0.009511717 0.0070411605 0.009795046 0.008103419 -0.0078048613 -0.009528444 -0.0054167057 -0.0008976909 0.0050140196 0.0035241866 -0.002049096 0.004602409 -0.0033123519 -0.006779658 0.0047994046 -0.009913282 0.00075251365 -0.00495605 0.0075064334 -0.003717196 0.0027929319 -0.0062785577 0.00977191 -0.005585548 0.0036173728 0.0030686797 0.0089311125 -0.0053329477 -0.004277961 -0.0063165873 0.0060262852 -0.004763872 0.0048686867 -0.0009917449 0.0072770338 -0.005949331 9.37611e-05 -0.0001245031 -0.008655487 0.008776695 -0.0020241165 0.0064819385 0.00010873498 0.0049325586 0.002231629 0.008829192 -0.008445708 0.008523635 0.008716138 0.0010944277 0.004353006 0.003962494 0.0041044196 -0.0029472813 0.0029794131 0.0008990315 0.004696805 0.008604048 -0.0076598437 0.00043622064 -0.008961686 -0.0013814425 -0.00911818 0.0033235378 -0.0014325265 -0.0006708494 0.006550208 -0.0080153225 0.0012627015 -0.0023012997 -0.0038199797 -0.007234332 -0.008124364 0.008481062 -0.007651352 0.0050177644 -0.003914978 -0.0011399742 0.0030834444 -0.008438501 -0.0054474007 -0.0076960945 -0.009126032 -0.0046614218 -0.003153469 0.00050630415 -0.0005029911 -0.007772227 -0.0035417648 -0.002851147 -0.0063178544 -0.006469117
download -0.002648707 -0.0077938423 -0.008194537 -0.0076353126 0.003613231 -0.007811833 -0.0036056011 0.006955833 0.007227695 -0.0065042493 0.006724162 -0.008039788 0.00016992404 0.0066793845 -0.0027446083 0.009113532 -0.00032573813 0.0045626927 0.0069455956 -0.008881125 -0.005996841 -0.007242631 -0.0010857066 -0.007127025 2.657202e-05 -0.0079956995 0.000411254 -0.00036839288 0.00644229 -0.008915317 -0.0030697735 0.005907112 0.009288142 -0.0019432233 0.00076443446 -0.005875151 0.0009070085 -0.00823662 -0.0077648116 0.0011925366 -5.4299646e-05 0.0054712347 -0.009755212 0.0017322553 0.0016984263 -0.0052598305 -5.803394e-05 0.0060741967 -0.0065308036 0.00034893694 0.0039142757 0.0016035001 0.002890703 0.008119155 0.0065740445 0.003612752 0.008028957 -0.007656699 0.007488545 0.0040303445 -0.005873329 -0.0042028045 0.006493187 0.005877644 -0.010013129 0.0014009278 -0.00034901808 0.0010838211 0.006863669 -0.0069872653 0.00954461 -0.009277151 0.006384168 0.009487643 -0.0036752915 -0.009323971 0.00626179 -0.0088465065 -0.008375106 -0.0007894896 -0.0068080663 0.0089483475 0.007670819 0.0010167243 0.007878035 0.009888972 0.005408559 0.004424633 0.0055517373 0.0064334334 0.0049532186 0.006457237 -0.0074681705 0.008869376 0.008427795 0.009471707 -0.008809688 -0.0035165646 -0.00032876176 0.0041401586
not -0.008257161 0.00027678275 0.006038843 0.009570257 -0.002774024 0.0016308873 0.0064742803 -0.0016951466 0.0018235706 -0.009451125 0.0006548359 0.004370267 0.0045517343 -0.009681089 -0.0050598173 0.0028788226 0.0016284372 -0.0048173554 0.005766545 0.0032512555 -0.007767986 0.009853186 -0.007650499 -0.0030789461 0.00967046 0.0011540992 -0.0056350497 0.0010981666 -0.0041270037 -0.006760811 -0.0076415204 0.004739256 -0.008943537 0.0039159837 -0.005548871 0.0056481147 -0.0042843535 -0.0056770993 0.0062668878 -0.008773414 0.0013891993 -0.0022067148 -0.006716392 -0.0076073823 0.0068802442 -0.0044651628 0.004494682 -0.00965954 0.0019818388 -0.0019073527 -0.005848976 -0.0028844983 -0.008649531 -0.0035188217 -0.002680587 -0.0021741316 -0.0050744973 -0.009157252 0.005264879 -0.0011712507 0.0061964225 0.0030558836 0.008673081 -0.0034193965 -0.009022625 0.0014672469 -0.008953813 0.006241083 0.008251159 0.00067057315 0.007618094 0.008647236 0.0043269615 0.0054065427 0.009280422 0.0011546098 -0.008186636 -0.0082054455 -0.0018297485 -0.00057518564 0.008678497 -0.009170181 -0.002726095 0.009278649 -0.0015593129 -0.00907225 0.0022442753 -0.0057170345 -0.0053079533 -0.0063622952 0.0003208 0.007283847 0.0041440846 0.008161018 0.008984434 0.004560897 -0.0058932793 0.006999241 -0.009502778 -0.004820965
name 0.007943905 0.00817679 -0.0052895285 -0.008137121 0.008209744 -0.0041382606 -0.003892712 0.0077072387 0.005169121 0.0036512539 -0.0013598403 0.008296435 0.00852096 0.0070926845 0.00928676 -0.0059607495 0.0010048746 -0.0017902141 0.006368713 0.009199889 0.0053221537 0.004107331 0.0067076283 0.00584436 -9.333853e-05 -0.008289818 -0.0023277258 0.009040848 -0.005084067 0.0009753106 0.0050923205 -0.006924156 0.008292324 0.0012516422 0.0024942213 0.008625107 0.0015638148 0.0007594023 -0.00956671 0.009584533 -0.009817485 0.008403096 0.005074217 5.4909815e-05 -0.0076630358 0.009313945 -0.0015927132 0.0054179765 -0.0029244584 -0.004850449 0.0002223434 -0.008176132 -0.0066244495 -0.009463918 0.005181659 0.00058852736 -0.0007647591 0.005138066 -0.0020101303 -0.0071405196 0.0029309841 -0.006015432 0.000699054 0.009653131 -0.0011679293 0.0063908976 0.0045799618 -0.0031515188 -0.005590714 0.00914524 0.001931049 -0.00020745223 0.0010954209 -0.0049383207 0.00373631 -0.0029725537 0.004334987 -0.0043283086 -0.0008882864 0.0039198776 -0.007421443 -0.002265146 -0.00903017 0.0018696862 0.0018513447 0.002529842 0.0014863216 0.0002113586 0.002536838 -0.00090874423 0.0062832227 -0.0029144175 -0.0052109254 -0.0053222175 -0.009462925 -0.008005079 0.0024103227 0.003843385 -0.00572354 -0.009724778
but -0.006227543 0.004806137 -0.008980308 0.005066042 0.0064190025 0.0058890404 -0.007476144 0.0032015948 -0.005580717 0.008892726 -0.0043755933 -0.0026181599 0.005336841 -0.0007915988 0.0052073025 -0.0043526962 0.0050194096 -0.009988898 0.006017002 -0.0015518571 -0.0055392855 6.4646585e-05 -0.0012034213 -0.0007515744 -0.0018030972 -0.009198581 -0.007896372 -0.00688024 -0.008676151 -0.0045871255 0.009240376 -0.0018236024 -0.0075378716 -0.006072689 0.0035722395 -0.0024705275 -0.0014733593 -0.004406505 0.005907442 -0.008065359 -0.0074568186 0.007415946 -0.0069344384 0.002219105 0.00049781176 0.009644183 0.004100256 0.0020732507 0.0028260807 0.002356673 0.0022781456 -0.0028485865 0.004092191 0.0060483846 0.008838342 -0.0006906117 -0.001187899 0.0065141856 -0.008558504 -0.0005796249 -0.006636093 0.0047900896 -0.008830537 0.0033542397 0.008888392 -0.0019349719 -0.008784932 -0.007919117 0.0029990072 -0.0051547866 0.006428408 -0.0009915242 0.008015909 -0.0005231188 -0.0059921383 -0.0056563127 0.00081379886 -0.0046616155 0.006493855 -0.0034629877 -0.005748995 0.0010986042 -0.005029901 -0.008026657 -0.005370181 -0.0018698393 0.0006842691 0.003810925 0.0070177494 0.0067493995 0.006119644 0.00044089006 -0.0057841423 0.009066017 -0.00041670405 0.0048123603 -0.0012864646 0.005710247 0.0053339135 -0.0073409844
color -0.002784695 0.0002207516 0.0020658707 -0.009331089 0.004915747 0.0032044176 -5.1551855e-05 -0.0032038274 -0.0077361073 0.0074949805 -0.008670547 -0.007583701 0.004518874 -0.008456798 -0.003196723 -0.0021787386 -0.0019092321 -0.006939446 0.0042507467 0.00073304155 0.0037218083 -0.001297148 0.006978189 -0.009567869 0.0057740915 -0.0051073343 0.001630252 -0.006977327 -0.0025229023 -0.0064651477 -0.0032776524 0.0097285295 0.0027469143 0.0014660456 -0.006093629 0.005758048 -0.008080261 -0.0023920573 -0.0065343357 -0.006527183 0.0023303754 -0.0033542423 0.0024215786 0.003981565 -0.006144909 -0.0017585467 -0.0028555118 -0.009795774 -0.009766872 0.0011426025 0.0044214875 0.00016352476 -0.004869609 0.003595872 0.0016370445 -0.009390836 0.0072385306 0.0077879005 -0.007773398 -0.0006738019 0.0060702353 -0.0027968788 -0.00024029496 -0.0041539855 0.0059838947 0.0071139145 0.0021272334 -0.0045145955 -0.002025175 -0.0038631288 -0.0098531 0.0079151075 -0.0005078675 -0.00059289613 0.0072112447 -0.0089761885 0.0063709808 -0.007459013 -0.0054225367 0.0051155244 -0.0035872872 -0.0033567504 -0.0064441627 -0.0037604992 -0.0027644243 -0.0040698363 0.009653283 0.00956331 -0.00022748292 -0.00027388058 -0.0054621757 0.007990197 -0.0049363566 0.005924746 0.009263459 0.005814478 -0.0008194268 0.005469787 0.006988964 -0.0039315084
again 0.0005977045 0.0066905287 0.0059141205 -0.00025981755 0.0024554655 -0.00674644 -0.009277885 -0.004600204 -0.0055877515 0.0005009466 -0.0040985835 -0.0006328759 0.0076861223 0.00981599 0.008026489 0.0022907783 -0.0027238198 0.0023282538 -0.0027097955 -0.009303827 0.0069977543 -0.008608965 0.0038709932 -0.0039993394 -0.0056496905 -0.0009549344 -0.0066655325 0.008548586 -0.006908156 -0.00899188 0.0058779772 0.004489566 0.0047916207 0.0022668536 -0.0037207766 -0.0049011125 0.0018449583 0.008275602 -0.005743228 -0.002575649 0.0018827213 0.0066477912 -0.0064009093 -0.004451683 -0.0024715238 0.0013442731 0.005256105 0.00556884 -0.008612188 0.0072801597 -0.0024910206 -0.002909504 -0.008824723 -0.0058000623 0.009387128 0.0031487856 -0.007977292 0.002814759 -0.0070867375 -0.008956684 0.003922621 0.0020211984 0.0013599038 0.008947181 0.006138435 -0.0049040574 0.0027960422 0.002804076 0.0021878118 0.008537071 -0.0070322515 -0.002184763 0.001139527 0.0063905683 -0.0005197297 0.008041769 -0.004569192 -0.008906352 -0.0070954096 -0.004102848 0.00944825 -0.004982856 -0.0050258515 0.008327076 -0.007557101 0.0020461278 0.0059554754 -0.007400866 -6.290479e-05 -0.0023357237 0.0058043636 -0.0044697057 -0.006630902 0.009898904 -0.004467201 0.007709416 -0.008248969 0.0069568604 -0.0033679886 -0.007879511
both -0.0012662943 -0.0021820012 -0.0017480192 -0.00124869 -0.006388656 -0.0038391904 -0.003015151 0.008184481 0.0056774914 -0.0010548307 -0.004934836 0.004953185 -0.008737772 0.0017100106 0.0041694767 -0.002117608 -0.004518864 -0.008421581 -0.008354836 0.006732268 0.0037227466 -0.000322479 0.009772347 -0.008586411 0.00048936653 -0.0003909958 -0.008208165 -0.009181304 0.007147379 -0.0036596134 -0.0077887173 0.00794977 -0.0061597023 -0.0033357346 0.0017520152 -0.003033561 -0.00787799 -0.004065592 -0.009122726 0.0011582981 -0.0045683617 -0.0001377927 0.0027266091 -0.0022751023 0.008956443 0.0070088026 -0.0006843795 -0.00061742263 0.00095648586 0.0068084546 0.0090133 -0.0021043143 -0.0015630899 -0.003027947 0.00037111616 -0.006365362 -0.0017934178 -0.008602678 0.0006085689 0.0015754071 0.0037788542 -0.0029163316 0.0061072353 -0.0069690235 0.009631485 0.0006931511 0.0023737599 0.0046657287 0.000102551334 0.0027961964 0.0015089733 -0.009427039 -0.0029731288 -0.0025961997 -0.009039872 0.0035311908 0.004874839 -0.0019085099 0.007295923 -0.0011271908 -0.00043791253 0.0059961807 -0.00867521 -0.0066851187 0.007174487 -0.0065784906 0.0087883305 0.0055390154 -0.007831887 0.008418689 0.006605753 -0.0065969476 -0.00847633 -0.008778094 0.004073427 0.0064396285 -0.0019161646 0.0012332313 -0.008327972 -0.005167514
things 0.0046630735 -0.0089949425 -0.0092067 0.000977906 -0.008543274 -0.007061936 0.0048113 0.008176019 -0.0074492525 0.008029727 0.009327234 0.0045598946 -0.004402864 0.009683213 -0.0076433704 -0.0039523453 0.0019259274 -0.0076928553 -0.009895009 0.0026799424 0.008211238 -0.005070506 -0.00424117 0.003908514 0.000651504 -0.008498071 0.0065051042 -0.0031552971 0.0035807244 0.0031333608 0.008938735 0.008750784 0.0073414855 -0.008361485 0.0011893641 -0.0008322005 0.0009332595 0.008861951 0.0047039366 -0.009025999 0.009846756 -0.00092505396 0.0003919636 0.004994678 -0.0061334693 -0.00042465725 0.0013168216 0.007058555 0.0043313573 -0.001928465 -0.008466759 -0.003953922 0.008794295 -0.009525042 0.009794542 -0.00011215951 -0.0011143987 0.009609345 0.0095570255 0.008336715 0.0090166135 -0.00997171 0.007575457 -0.009325122 -0.0077827005 -0.008756795 0.0021832464 0.0073408373 -0.006409292 -0.0026228575 -0.0023874387 -0.0044039716 -0.0012370235 0.004872009 0.0037813713 -0.0031725238 -0.0036564113 -0.0023211702 -0.003267673 0.003972415 0.009670615 0.00793049 -0.0076446584 -0.0063580745 -0.009211499 -0.005896901 0.0037632885 -0.005965629 0.0017745157 0.008897373 0.0034599833 0.0012468233 0.0089299455 0.006417761 -0.0013424965 -0.006151725 -0.00094189943 0.007231485 0.0075078965 -0.0040697367
group 0.009923964 0.0024924537 0.00515351 -0.0056731156 0.00440317 0.00011631047 -0.009523212 0.005256019 -0.009100257 -0.0065438454 0.0027372483 0.009124987 -0.0021033357 0.007006149 0.005144864 0.0039827307 -0.00618055 0.0049928403 -0.008330709 -0.004500339 0.005478195 -0.008118272 0.005751118 -0.003487943 -2.2001163e-05 -0.007329662 -0.006318159 -0.0033337374 0.008565063 0.0053282976 -0.009629508 -0.0065830555 0.0034597802 -0.008630574 0.006620386 0.0062811077 -0.009253662 0.008596082 0.00778525 -0.0019227032 0.0018075671 -0.0057483744 0.0062213503 0.007730091 0.0041145063 -0.008861495 0.0048801987 -0.0030772272 -0.0021631478 0.006151891 0.0018595962 0.004537293 -0.006265436 0.0052183354 -0.0036187232 -0.0003481399 0.006238658 0.0040924605 0.0074232034 -0.0038582429 0.0035921333 0.0073147523 -0.0032125625 0.0058269533 -0.009484525 0.008933576 0.0038166973 0.005476458 0.0044922316 0.0046806764 -0.003360909 -0.006106334 -0.0021841447 0.0013610575 -0.0028225544 -0.008426795 -0.0062797777 0.008443825 0.009313399 0.0059578307 -0.0041898247 0.00077178737 -0.008688739 0.006778419 0.00040853958 0.0073652407 -0.0052243294 -0.0027758658 0.0029509193 0.00345801 -0.0064272513 -0.0073203593 0.0020316497 -0.008987649 0.0058952724 0.005507865 -0.003738442 -0.005672046 -0.008317069 -0.0019074678
ios 0.006954613 -0.000131272 -0.00793168 0.008866212 -0.008525115 0.0054678274 0.0065024896 0.0011068836 -0.008783895 0.0061565693 -0.007890315 -0.005126784 0.009645036 -0.008261049 -0.0075768097 -0.004964545 0.0034657738 0.0018802424 -0.005576596 -0.003418919 0.008588114 0.009787126 0.009954429 0.0010282339 0.0040182546 0.0013909921 0.0016372997 0.004829395 0.0021928423 0.00028916533 -0.003108406 -0.006517814 0.008023419 -0.006035524 0.0027665794 -0.00081852765 -0.0036273596 -0.004988254 0.0031637251 -0.0059452946 -0.007481382 -0.0026626159 0.004693583 0.0060922722 -0.0014061283 0.0073098536 -0.0076492256 -0.0047369855 -0.007842866 -0.0060468856 0.0073065446 -0.009331781 -0.00864517 -0.009815206 0.009130499 -0.0026452816 0.0010313787 -0.006146467 -0.0025426263 0.00013128816 -0.0024737918 -0.0073721684 -0.0061602914 0.0025578253 -0.009562382 0.00121887 -0.0019581823 0.008395306 -0.0005102505 0.0062974673 -0.0071454644 -0.007491436 0.0056076 0.0009520829 -0.0050195437 -0.0025998608 0.008807261 -0.009121467 -0.0037032391 0.0010113561 -0.0002861337 0.009585063 -0.0020221975 -0.007036679 -0.00773925 -0.009886243 -0.0077361176 -0.0059888028 -0.005869722 -0.00138634 -0.00046139667 -0.0046684844 0.0021101984 0.003862625 0.009093888 -0.0046065524 0.0052343505 0.0072309976 -0.0037480437 -0.007459085
1st -0.003413776 -0.006686729 0.006585969 0.009294853 0.0084085055 -0.008847681 0.0051999893 0.0055936277 0.0054461765 -0.008516272 -0.00010870017 -0.0071777394 -0.008838909 0.0025951122 0.010125028 0.0063468628 -0.0070646363 0.0021560276 -0.003964375 0.009472728 -0.008695368 0.009747687 -0.0064129233 -0.00702044 0.0014600311 -0.00060824415 -0.008644531 -0.0006251856 -0.00042016958 -0.0062884735 0.0059119975 0.0031578606 0.00854021 0.0071569015 -0.0066365823 0.00510493 0.0058148396 0.0056396266 0.0050153174 -0.0049870624 0.0043614954 0.0011678252 3.0296089e-05 -0.0063722655 0.0017025181 0.0052364096 -0.009353427 0.008635902 0.0030657197 4.5882854e-05 -0.0032535559 0.00016712422 0.006111131 0.0047251363 -0.006140136 0.008028215 -0.0005883073 -0.0081139 0.008795667 0.0052328375 0.0036638037 0.007883714 -0.0073769903 -0.005649369 -0.0021812343 -0.0038762223 -0.0014933217 -0.00023369804 -0.008739442 0.0021447684 0.0024104582 -0.0006065865 0.0050486843 0.0014159504 0.0062367865 -0.0021482906 0.008614312 -0.0013623522 0.002968918 -0.0037303222 0.0059115184 0.0033019416 0.00030700656 0.009034187 -0.008020433 0.009772336 0.0011463955 -0.0021648386 -0.0038799525 -0.009118972 -0.0018835114 0.0027273076 0.006548032 0.009086308 -0.008556969 0.009147276 -0.008557669 0.0036328242 0.008084472 -0.0025595105
2ed -0.007895916 -0.008237976 0.0011895642 -0.0007890636 -0.009454228 0.0029252556 0.002385714 0.00469567 0.0043130685 0.0031511923 -0.009919206 0.0055424846 0.0043383166 -0.007705885 -0.0020425166 0.00023401236 -0.00063389994 -0.0010704858 -0.0055921427 -0.00019005573 0.004450605 -0.00066496385 0.00082922814 0.0020671713 -0.0040508686 -0.007865055 0.009103536 -0.009794195 -0.0025372924 -0.0013004456 -0.0075759366 0.001741171 0.008039127 -0.0016256818 0.008082198 0.00046457158 -0.0057061883 -0.0020383885 -0.00080042746 0.0061479667 0.007143399 0.006123321 -0.006027401 -0.006954556 0.006189887 0.0024694132 0.005273818 0.00047593107 0.007899094 -0.008827949 0.0099137975 -0.008361686 -0.0016835179 0.0062507032 -0.009326085 0.0044310116 -0.006961284 -0.0068185246 0.0022571865 0.0018154118 -0.002773256 0.007843268 -0.0069429833 0.00056265574 0.00864727 0.0021615084 -0.006825105 0.0037107987 -0.0052170665 0.0007215408 0.0027860447 0.007714236 0.0075087063 -0.0049352436 0.009665922 -0.0054731886 0.0076925987 -0.007888787 -0.007877417 -0.0010634261 -0.008257144 -0.0033571916 -0.0006615555 0.00015166488 -0.010062418 -0.006514753 -0.0072365603 -0.00028696097 0.0053254715 -0.000103644525 0.010120232 -0.0038577765 0.008053982 0.0060885414 0.008417073 0.00015653996 -0.00028978827 0.0018651685 -0.009891738 0.00900832
other -0.002428036 0.0076572965 0.0021025361 0.002888785 -0.0011849097 -0.010075969 0.0015268725 0.0031803907 -0.009957412 -0.0040006763 -0.002424536 -0.00531881 0.0040364778 0.002140793 0.0044517484 -0.0065924986 -0.005983524 0.004565418 0.0067181224 0.005218178 0.004843675 -0.0071940953 0.008215421 -0.0069869277 -0.007754208 0.008540405 -0.0025679895 -0.009409362 -0.0031214005 0.0059246626 -0.0027834568 0.004939939 0.00015789401 0.00392139 0.0011403019 -0.009103058 -0.0035709967 0.00872333 0.0014327266 -0.006054137 0.0070726103 0.0073890886 0.007231321 9.997692e-05 -0.009017618 -0.0035156668 0.0050299536 -0.0065168133 0.009826141 -0.009734351 -0.008102493 -0.00545825 0.006029962 -0.007703175 0.008493036 -0.009771639 0.0035379387 0.0033091893 -8.947475e-06 0.00964677 0.0051685353 0.00029386568 0.004940095 0.0065137753 0.0028650318 0.009542782 -0.0012840709 -0.008119931 -0.0046994635 -0.001336288 -0.0073529826 -0.0014050328 0.008065394 -0.005022633 0.0052513443 0.0044253133 -0.00064264826 0.00119676 0.0056435955 -0.006617619 0.0037645216 0.009029228 -0.0036537123 -0.007415346 -0.009313715 -0.008999177 0.0040979553 0.0052336087 0.0071930145 -0.0014723181 0.0011758056 0.0031412267 -0.009879683 -0.009385367 0.0047591953 -0.0083102835 -0.0029965614 -0.0043751206 0.0059434213 -0.003456935
lamps 0.009966123 0.00064962683 -0.0050946022 -0.0036772478 0.0013158747 -0.005497242 0.007494012 0.009289046 0.004201607 -0.007428075 -0.0059730113 -0.000109941255 -0.0009711535 -0.0054503544 0.007992499 0.006165523 -0.004171525 0.0022883988 0.005117257 0.00216884 0.008626172 -0.0012731086 -0.006477067 -0.0008824838 -0.008402113 0.00983415 -0.008682448 -0.0015073159 -0.002873543 0.003140827 0.0050727846 -0.008244879 -0.0043457327 0.00038229875 0.004007566 0.0052832267 -0.0013248427 -0.00069616147 -0.007909862 0.004427226 -0.0076250066 0.003217312 -0.0034438013 -0.0077429367 0.006990363 -0.00049356656 -0.009635166 -0.0093621565 0.00064977794 -0.00813366 0.003777451 0.003411637 0.0033413302 -0.0056147175 0.0078912135 -0.008894309 0.007513976 -0.0006041029 -0.0015354123 0.004091549 -0.0024475977 -0.004405602 -0.0023062592 -0.006080933 -0.0004687455 -0.0052847615 0.0046535237 -0.009373104 -0.0045271707 -0.009030111 -0.00969414 -0.00064018235 -0.007974356 -0.00570555 0.0028936982 -0.0014245411 0.003155937 0.00836176 -0.009703614 0.006111454 -0.008054454 0.006666972 0.007335417 0.0087478645 -0.008045321 0.0033843224 -0.007653948 -0.001172772 -0.0050721765 -0.008523711 0.005103942 0.0044686026 -0.0040861624 -0.007776038 0.003663262 -0.0038803406 -0.008760899 -0.0044501447 -0.0021513496 0.008742752
code -0.0065021226 0.007474812 0.0061906227 -0.004928371 -0.0016879664 -0.0027348576 0.003303793 -4.6422327e-05 -0.002966476 -0.009169902 0.0063264924 -0.0099052135 -0.008580204 0.0014172412 0.003090746 -0.00011623147 0.00039316498 0.002393314 0.0017319655 0.0071721827 -0.0034138244 -0.0071965675 -0.007854769 0.007880218 0.001830528 -0.005781408 0.0062644742 0.008389643 0.007895782 -0.00683762 -0.005002306 -0.002062158 -0.0064763604 0.004508693 0.0056506833 -0.005720111 0.0073011443 -0.0077734147 0.0060960515 -0.004859095 0.0019700285 -0.0034154376 0.003361536 0.007828596 -0.0012553443 -0.005031724 -0.008664068 0.0036663269 0.0042678793 0.0068055885 -0.0042372285 -0.009887653 0.006827678 -0.00455432 0.004272131 0.008196032 -0.003900449 0.0016781527 -0.0036944456 -0.006435621 -0.0056509417 -0.00015153844 -0.007381398 -0.0018296944 -0.0026483326 0.006900289 0.0014604685 0.0061249733 0.0035272806 -0.0033160879 -0.0052095847 0.009835965 0.0072271707 -0.0091010565 0.005463097 0.008221838 0.009236528 -0.0078693265 -0.0021068517 0.0011402647 0.002787254 -0.0014175797 -0.0048931986 0.0066671 0.006768236 -0.00035038832 -0.005555902 -0.004191477 -0.004956478 0.004244531 0.00076431356 -0.0023147576 -0.009113138 -0.0014646497 0.006660818 0.0063608605 0.0044083064 -0.0029691188 0.009083989 0.00057832303
added 0.0010311438 0.006379099 -0.006457121 0.006400924 0.009941604 0.0033345511 0.0036892993 0.004814944 -0.0022016745 -0.008235782 0.001326812 0.00049365306 -0.0067222165 0.002083907 0.005606668 -0.007420948 0.0025179253 0.0074629695 -0.008637114 0.0029058883 -0.00840206 -0.007804873 0.007226084 -0.0076526916 -0.0015481279 -0.007923895 -0.008034386 -0.0071390187 0.00034065775 0.0017879294 -0.0076712496 -0.008103957 -0.0030401486 -0.0020909184 -0.006192519 -0.0038305328 0.0036990005 0.0028696188 0.0064112656 0.003905963 -0.00082549924 0.0025930118 0.009001869 0.002112989 0.0020395366 0.0010631012 -0.009560432 0.0054104086 0.0051931264 0.00011902269 0.009308062 -0.005926238 0.0032472399 -0.007854428 -0.009113626 0.0022071966 0.0049181124 0.0061162245 -0.008800705 0.004650753 0.0024159946 0.004095864 -0.0004023285 0.005729741 0.0070149293 -0.008107799 -0.009848581 0.007467188 -0.0014458922 -0.009044477 -0.0042815534 0.0014936912 0.008709434 -0.001746819 -0.0007354467 -0.0073067024 -0.0075018913 0.0016847528 -0.00067676057 -0.0076877694 0.00058714236 -0.00864157 -0.0028430026 0.004635908 0.0008694121 0.007896761 0.007032194 -0.0009578159 0.0053105713 0.006170205 0.0092023695 0.009192589 0.0048354412 0.004593892 0.00744941 -0.0013876653 -0.005318124 0.008751158 0.0013210907 -0.0051008184
use -0.0009185716 -0.00507765 0.0091598425 0.0033821438 0.0043989783 0.006247185 0.008371717 -0.004317542 -0.0065734154 -0.0038747834 -0.0038063915 -0.009793929 -0.00053387816 -0.008030952 0.009889317 -0.0035550515 -0.00631858 -0.00830744 -0.003622558 -0.0100076245 0.0008629501 0.005444819 -0.0027827413 0.007640263 -0.001995859 -0.0072532496 -0.0032290881 -0.0031462698 -0.007134202 -0.009723033 -0.0039309287 -0.0016005379 0.0050931294 -0.007828327 -0.0050058626 0.001668911 -0.0015484202 0.0033871594 -0.0020271346 0.0040819505 0.008044565 -0.008052371 0.0037515908 0.006080305 -0.0003982338 0.006712608 -0.005558793 -0.004570491 -0.0077190334 0.009540143 -0.009358577 -0.0034286834 -0.00040840212 -0.004868326 0.00930937 -0.0067054075 -0.007945337 0.00927346 -0.008382163 0.0098425755 -0.004051364 0.0056510726 -0.00022457764 -0.0038679722 -0.0077125817 -0.0060705137 0.0069277426 0.0066626812 -0.00014515225 0.006614 0.003711107 0.0040296055 0.0028563344 -0.009721755 0.009471176 -0.008139345 -0.0029111232 0.0016292479 0.0051181046 -0.0091555305 0.001513741 0.0065889107 -0.008966051 0.009793268 -0.0053822207 0.009567101 -0.0062074936 0.0067570107 0.009588936 -0.009215587 0.00055094244 -0.007615821 0.008104554 0.009611978 -0.0057800403 0.0009425857 -0.0020110358 -0.007909848 0.000885498 -0.009905238
manager 0.0025462497 -0.0076014833 0.005773862 0.0075126463 -0.0024744915 -0.0041774893 -0.009477579 0.005206879 0.0027501378 0.008690716 0.0032320723 -0.0031046334 0.0036143556 0.008664914 0.009323857 0.007559115 -0.008560608 -0.007746874 0.007226006 -0.0077595394 0.0033294954 0.008091261 -0.0031199674 0.006699038 -0.008261679 0.006503136 0.005530126 0.0032996775 -0.008143644 0.009142615 0.008371703 -0.0015733337 0.0041992366 0.006235636 -0.0017162737 0.0057190023 -0.0039680554 -0.0014284257 -0.0013403561 -0.004357839 -0.00067630573 -0.00784384 0.0036541345 0.009178088 0.0048940387 0.006329935 -0.004861204 0.004889905 -0.006603493 -0.0049510533 0.009943587 0.006301132 -0.00497225 -0.006070973 0.0071001058 0.0028289882 0.0066380617 -0.006723937 -0.0010788369 -0.0008065454 -0.00020011896 0.002237019 -0.0066252793 0.004488246 -0.002864425 0.008496994 -0.0009979409 0.009397486 -0.0010730645 0.0053903987 -0.007715089 -0.008954025 -0.0002400231 -0.0022659518 0.010131279 0.0045805904 -0.005494706 0.007509639 0.0004944382 -0.009517852 0.0055919746 -0.0018496738 -0.009591137 0.008886892 0.0070785917 0.008611305 0.0006002201 0.007834713 0.0053603444 -0.0069047105 0.009552265 -0.0034977358 -0.009815005 0.00855606 -0.005180737 0.008458699 -0.0076542427 0.009182071 -0.005862312 0.0039627734
user's 0.009726277 0.0043470417 -0.002023581 -0.00502958 -0.0096233655 0.003984608 0.007609664 -0.0043507274 0.0057252957 0.006781537 -0.009131307 0.0018125614 -0.0067653563 -0.0042527397 0.00097351125 -0.0071648583 -0.004159657 -0.0076973885 -0.0070364764 -0.0073240143 0.010044863 0.008393491 -4.5286197e-05 -0.0026778094 0.0061042984 0.0013501651 -0.009100282 -0.0070691067 0.0010235523 0.007916193 0.0033716413 0.009817963 0.006677793 0.00015580376 0.008679418 0.009261336 0.008159749 0.009271025 -0.009523255 0.0033160558 -0.007751468 -0.007276376 -0.0084459195 0.003347382 0.00011168873 -0.006403439 0.0053769113 0.0079480205 0.0044150013 0.007853156 -0.004207237 -0.0065154764 0.0040089367 -0.0029376198 -0.0073225447 0.0038395543 -0.0031931242 -0.0051811994 0.0025595948 0.007046939 0.006408848 0.000112923524 0.008834636 0.0030822302 0.0063772243 -0.0007149863 0.002158916 0.0064483304 -0.01010097 0.0060542305 0.001090408 0.006254187 -0.0012723414 -0.0027181811 -0.005390094 -0.0027878068 -0.002461682 -0.0049589872 0.0008345374 0.008030318 0.004943468 -0.0074493657 -0.007647836 -0.0026503627 0.0037018731 -0.009239517 0.00640939 0.0032475216 -0.002557332 0.009205938 0.008354744 0.0007746091 0.004717237 -0.009334433 -0.00865058 -0.0028710181 0.009517196 0.0031582848 0.005679507 -0.006778335
set 0.0041772593 0.00056700566 -0.00083326094 -0.00330224 0.0050406945 -0.009330868 0.005272558 0.0060813557 -0.002639927 -0.0043285275 -0.007498475 -0.0067011523 -0.005047702 0.0032288157 -0.0046655056 -0.0013661684 -0.00891494 -0.0036800767 -0.0008093065 -0.00837605 0.0033568982 0.009820725 0.0045167366 0.0018527313 -0.0050056507 -0.0010919765 0.0021218562 0.0016998752 0.00878537 -0.00095753925 0.0071562114 0.0057727024 0.0031275123 0.007124455 -0.004947491 -0.0036451216 0.007059723 0.008501849 0.0030161233 -0.0043271286 0.0077151572 0.0025986983 -0.00024780098 0.008967704 0.0044631236 0.0039350865 -0.00017364901 -0.008941889 -0.00301978 0.00247994 -0.0055677914 0.006961659 0.0074598943 -0.008972695 -0.0055373586 -0.005865742 -0.0005681542 -0.0017863784 -0.0021229433 -0.002054094 0.0036388976 0.009584981 -0.0044110785 -0.008138305 0.0035478754 -0.006276548 0.0067878757 0.0029986927 -0.008171522 -0.0074953395 -0.009382761 0.0025575075 0.0029137176 0.002592703 0.00038808293 0.001131233 0.0031549686 -0.0013835744 -0.008126238 -0.00060431473 0.0035049631 -0.0024244678 -0.0023553157 -0.0020042495 0.007124432 -0.0030288724 0.009751678 -0.0037358021 -0.00976084 -0.0065623163 -0.0040924833 0.0012958356 0.005088607 0.0021472971 0.009217015 0.0009968001 0.0058596293 5.634176e-05 -0.0020711732 0.0062115346
android 0.0019745287 0.008369345 -0.008257009 -0.008773139 -0.00048573452 -0.0021034426 -0.0022141133 -0.00024895574 -0.005226471 -0.008126564 0.00818626 -0.003600062 -0.0027954134 -0.0015565882 -0.0011384375 -0.009313195 -0.0017857053 -0.0014615569 0.008604885 -0.008253742 -0.004689347 -0.0018333097 0.0029520036 -0.0060477383 -0.0056074043 -0.007933139 0.0054475563 -0.008727482 -0.0032916255 0.00025431378 0.0015418703 -0.009940433 0.008718059 -0.0022152325 0.0003122743 -0.008555005 -0.008083693 0.0036523177 0.003920357 0.0028119644 0.005897752 -0.0070121796 -0.0012627094 -0.002657855 -0.0012703044 0.004492803 0.0012465597 -0.007428186 0.003309039 0.006296813 -0.0060671773 0.0031041726 -0.0042796056 0.008804067 0.003989575 0.0021279776 -0.00094531424 -0.00910041 0.008612088 -0.0016864851 0.007434177 0.0037588908 -0.008156372 -0.0005375575 0.002589858 -0.0024198347 0.009781258 -0.0047162534 -0.007400226 0.003976704 -0.0036807472 -0.006725015 0.0021972037 0.005249074 -0.0053153834 -0.004301687 -0.0071249153 0.0017010387 -0.0048310147 0.008470034 0.0005683553 0.0020125192 -0.0034962627 0.007567971 -0.00079708674 -0.008188635 -0.0071109785 0.0003168085 0.007901765 0.0030930405 -0.0051259743 -0.006674827 -0.009868149 0.0039417623 -0.009369893 0.0032879794 0.001856253 -0.00088616967 -0.009933186 0.0058812313
barcode -0.00016399437 -0.009719988 -0.007436341 0.008503931 0.0020622911 -0.0085112415 -0.0005810761 0.0059965723 -0.00958817 -0.0070726196 -0.001125455 -0.010177722 0.00056270685 0.0020586657 0.008725273 0.000811818 0.0013030859 0.0046456866 -0.0043620076 0.006633546 0.0002551795 -0.00064010284 -0.009601961 0.00046435616 0.0065859496 0.001779578 -0.008231906 -0.0033908004 -0.006122451 0.005989822 -0.006253702 0.005216379 -0.0050827814 -0.0071271546 -0.0075884606 0.004216781 -0.008670931 -0.0059030494 -0.0072707916 -0.0046311202 -0.004016897 0.0013044168 0.006431885 -0.0010222059 -0.0052489806 0.0014980261 0.0054833717 -0.0052409247 -0.0052263318 0.0052960594 0.0063677114 -0.007964525 0.00821472 -0.009906044 -0.007606102 -0.0056953626 0.0018588527 9.7746095e-05 0.0033423777 0.007240245 0.0048427475 -0.0032021264 -0.006225802 -0.008057953 -0.00071556604 0.009982315 -0.0075716763 0.004081757 0.003970939 -0.0040525952 -0.007134365 -0.005185655 -0.0048413747 -0.0070300694 0.0062278644 -0.0076930057 -0.0028313645 0.0046117404 2.0980773e-05 -0.007645511 -0.004916149 0.0038781813 0.002238767 -0.0016555146 -0.0009562692 0.002622553 0.001848177 -0.0024185719 0.0056559048 -0.007651775 0.006779603 -0.009921474 -0.002280415 0.006745783 -0.0033214516 0.0066343746 0.0057350635 -0.007520103 -0.0001595802 -0.0045660567
an -0.008087819 -0.000795053 0.0064378334 0.008723112 -0.0049519497 -0.0028868604 -0.0058460147 0.001617689 0.0024950171 -0.010009645 0.00233832 -0.0091534695 0.000499441 0.0048754904 -0.0051562684 0.00014397688 -0.0021516345 -0.008835088 -0.0024897687 0.004086724 -0.008519554 -0.005911833 -0.00048964296 0.007954389 0.0012849919 0.009765236 -0.0077693863 0.008977707 -0.0047959825 -0.006412992 -0.007680134 0.0018196583 -0.0026470723 0.0073279697 -0.00057310367 0.0028154699 0.006070932 -0.008814071 -0.0022243797 -0.0049594254 -0.008582058 0.0033208225 0.0023783122 -0.0023123187 -0.0017252746 -0.0067576305 -0.003409414 0.0012832044 0.007828661 0.0071468167 -0.0035232857 0.0034584955 -0.0025879121 -0.0047618994 -0.0038148263 -0.0059910193 0.0035316234 -0.007755255 -0.0075888904 -0.004330025 0.007475724 0.0018257251 0.0056037684 0.008389351 -0.006418536 -0.0044621904 0.0077639255 0.005245688 0.0043598306 0.009213388 0.008709723 -0.0024823963 0.0012327054 0.0054738997 0.009135617 0.009880562 -0.008159932 -0.004977207 0.004848199 0.0010309627 -1.9609233e-05 0.0077068224 0.006229995 -0.006984632 -0.0027851397 -0.008468001 0.0073552704 0.002918524 -0.0020450423 0.0018406115 0.007931584 0.0082278345 0.0062031415 0.0032069932 0.0017562151 0.0082356045 0.001537657 0.00033160072 -0.00947744 0.0025188837
his -0.008476856 0.0065425597 -0.005759252 -0.0017670324 0.0010220362 -0.0019821038 -0.009035957 0.004194109 -0.0066554057 -0.008875385 0.0038912736 -0.0008983928 0.006548366 -0.006965176 0.00083299686 -0.00074861257 0.005758856 -0.009809068 0.00589083 -0.009157052 -0.0077587096 0.00075049023 -0.002613586 -0.0039134943 -0.0053723315 0.004130452 -0.009369067 0.0011625928 0.004179417 -0.00029901043 -0.00041718193 0.0071347826 -0.009522421 -0.009121421 0.0044371337 0.008874478 -0.007749425 -0.00837457 -0.00071334565 -0.009134841 0.002144273 0.00918523 -0.0061202236 -0.0067166286 0.009001906 -0.0007650389 -0.0038221115 -0.002716371 -0.008708777 -0.0045950175 -0.004117388 0.00018656472 0.00067180773 0.007609712 0.006737789 -0.001462269 -0.009941142 0.0026053565 -0.006158615 0.009159661 0.0038330848 -0.0010191427 0.0066754753 -0.0034224114 -0.0037631122 -0.0002563049 0.008461392 0.006078594 0.0014278891 0.0038736179 -0.0030344683 0.009356925 -0.0070566763 -0.0032250849 -0.005202709 0.008757313 -0.003087367 -0.0023080055 0.0070936736 -0.009681363 -0.0029927045 0.0029727165 -0.0063448884 0.008869241 0.0010828135 -0.0052265674 0.005076683 0.008052948 0.0010012167 0.0068333936 -0.0067103244 -0.0035791402 0.009926666 0.0056942245 0.0016921333 -0.0034498626 0.0045155985 0.002471077 0.008393504 -1.7352233e-05
feature 0.008582051 -0.00579625 -0.0075789243 -0.0014124832 0.0030348469 -0.002100381 0.0059833312 -0.008173258 -0.009095338 0.0074847895 0.0063160523 -0.004238904 -0.003992099 -0.00349625 -3.2506505e-06 0.009029234 0.0009721855 -0.0021373094 -0.0034761156 -0.0022774937 -0.00917109 0.006860111 -0.0089911865 -0.0031296285 -0.0071918773 0.009084825 0.0057348255 -0.0004893476 0.0038918913 -0.0024513276 0.009889074 -0.0036563019 0.00490989 -0.003915265 0.009532469 0.009665602 0.006291025 -0.00033239048 -0.0017744707 -0.008752948 0.009371505 -0.008497568 -0.0065636532 0.0056340382 -0.0021850637 0.007961014 -0.00795812 0.009184222 0.0023044653 -0.008517763 0.003978784 -0.0050332225 0.0063709267 0.006578592 -0.008863108 0.0065259845 0.0053135576 0.006497515 -0.0071002287 -0.0064909123 -0.008839062 0.0052566566 -0.003934218 0.0048769712 0.0046938295 0.008168958 0.002298398 -0.0009284697 0.0013084885 0.003087159 -0.008841594 -0.0058854716 -0.0008706379 0.004904264 -5.109721e-05 -0.009640344 -0.0005858065 0.0072401715 0.0062588295 0.0034948485 -0.004693381 -0.003616756 -0.0021597994 -0.00587513 -0.008700327 -0.0005443479 0.0019552747 0.0049153804 0.003677135 0.008573086 -0.0066388277 0.009333128 -0.003345608 0.0008319385 -0.004150856 -0.0039939536 -0.001379428 -0.0075826216 0.009010832 0.0045557744
up -0.002313054 0.002012885 0.007869726 -0.005640766 0.00387965 0.00055801985 0.0029991653 -0.0019347057 -0.009965297 0.005803208 -0.0014822736 -0.008490555 0.00078110344 -0.006157418 0.007748406 -0.0064740703 -0.001633966 -0.00051074737 -0.004326724 -0.003630057 0.0073879636 0.0018884641 -0.009357828 -0.00031372186 -0.009592225 -0.003122502 0.004882483 0.0036454885 -0.005763735 0.0014417423 0.005854223 -0.007496778 -0.0033280132 -0.0025766087 -0.008901339 0.002265863 0.006548202 0.0023673119 0.0023334436 -0.00092225283 -0.0007820556 -0.0063421703 -0.00049233803 0.0066579613 0.003039367 0.0005212489 0.007770071 0.002804698 -0.0073694075 0.007341376 0.009601712 -0.009162505 0.007252236 -0.007611932 -0.00042514547 0.004671473 -0.005707189 -0.007930682 -0.007327985 -0.00982617 -0.0066611366 0.009552573 0.0029979022 -0.008999026 0.0084177535 0.0072841 0.007875418 0.009766724 -0.00882657 -0.002103931 0.002045095 0.0025151207 0.0049249185 -0.007721897 0.0049494132 0.009962412 -0.008940188 0.007980076 0.0031549686 -0.004106147 -0.0016098989 -0.008401435 -0.00757769 0.0056258338 -0.0032025685 0.009987884 -0.00787326 -0.006924147 0.0062648677 0.0078936685 0.0038447995 0.0073144315 0.006496591 -0.005751903 0.008831334 -0.0062693446 -0.0027645284 -0.006036896 0.006118372 -0.004406569
using 0.0030499764 -0.0014854617 -0.0011551298 -0.005870069 -0.0057372707 -0.0037301402 0.00037410727 0.0016892931 -0.003411329 0.0018745506 -0.00572326 0.009813628 -0.000789735 -0.006911115 -0.0017699746 0.007882694 -0.0010772549 -0.005242729 -0.00806799 -0.006091438 -0.0031488342 0.007747183 -0.007188224 0.0014232235 -0.00013965149 0.0039935685 -0.008035311 0.007936803 -0.0028021813 0.0052951733 -0.009443164 0.005090159 -0.00823001 -0.0033662354 -0.0011971026 -0.0035026306 -0.0006752492 -2.4586954e-05 0.0044339923 -0.0023612108 -0.003978162 -0.0062443623 0.00833443 0.0046630856 0.009192825 0.0054678638 -0.0046926714 0.0082684 -0.0069074333 0.00306251 -0.003340397 0.00020953051 0.003781609 -0.0028271086 -0.0045039835 -0.0019249492 0.0005676123 0.006464282 -0.005909419 0.004734865 -0.0036684428 -0.007975778 -0.0055406615 0.0019399845 0.008706774 0.007972512 0.009262855 0.007053431 -0.0031107918 -0.0022955667 0.008756366 0.006576631 0.0061040083 0.0068675308 0.0017270793 0.0024727392 -0.0081808595 0.0076399413 0.009403351 -0.0070704524 0.0010705043 0.008828465 0.0035580692 0.007070097 0.0075638797 -0.0019013274 0.00902007 0.0060817474 -0.0017879872 7.956866e-05 0.009848814 0.0058759986 -0.0066912463 -0.003486636 -0.0033817613 0.0031732244 0.0012179734 -0.008652641 0.0021874385 0.009604026
light 0.002319254 0.004394357 0.0020041894 0.008080862 0.008928297 0.002979563 -0.0023390462 0.0038615824 -0.007827209 0.007921376 -0.004078888 0.009740647 -0.009532154 -0.0025499274 0.008993264 -0.004182094 -0.001944454 0.0049018734 0.009248156 -0.0006099984 -0.006736285 0.010037668 -0.009485637 0.0012304693 0.0055063767 -0.0077821678 -0.005718553 -0.009179164 -8.227106e-05 0.004985338 -0.008178821 -0.0030844102 0.008421568 -0.0045954613 0.0031580688 0.0036556087 -0.0035350644 -0.0052616918 0.008291399 -0.0026732793 0.008985704 -0.0024997804 0.0030705559 0.005669692 0.0006510437 0.004371716 -0.0060561956 0.008400068 -0.0015652741 -0.0043764845 0.005143621 0.009823789 -0.0056551537 0.0007984102 0.0042972863 -0.0027165462 0.0007041866 0.008841558 0.0076743085 -0.0063884836 -0.0031849854 0.009213339 -0.00022024475 -0.009509206 -0.00080724503 -0.00670413 0.0009821453 0.0010127298 -0.004576989 -0.004473179 0.008748417 0.004664675 0.0026888484 0.0018612277 0.00835205 -0.004936156 0.0061327256 -0.00089257874 -0.0077161086 -0.009679226 -0.0017620081 0.008236971 0.002077007 -0.008844082 0.0011564962 -0.0036406994 -0.0038803455 0.008255654 0.0059519103 0.0003820268 0.0026253224 0.0009951177 -0.009904242 0.0030212165 0.0073537123 0.0040574614 0.002600342 -0.0036109642 0.0023719498 -0.0076767816
device 0.004195373 0.002480376 -0.00037746743 -0.0006364872 0.0027130006 0.002078948 0.0015692711 0.009406728 0.0034213266 0.0012781709 -0.002966545 -0.0062513924 -0.009278659 -0.0031942427 0.0044223084 0.007514217 0.0006468692 -0.0048674094 0.003557088 -0.004140141 -0.000730276 0.008889835 0.008224624 -0.0004717286 -0.006003527 0.0037101174 0.009754715 0.008658422 -0.0019370805 0.0071222587 0.009371773 -0.009594503 0.00894004 -0.00011646677 -0.00521061 0.0038786794 0.009029798 -0.007329755 0.006763387 -0.006549526 -0.0077490075 0.0054384232 -0.004592502 0.0048193494 0.0074911364 0.0096407635 0.0056083854 -0.00887897 0.0033113104 -0.008946307 -0.00033941495 0.009704378 -0.005131142 0.0040907157 -0.005845333 -0.007969795 0.008068701 0.003257487 0.0073287836 0.0030277122 0.0011986278 0.0037248728 -0.008322295 0.006682695 -0.004599727 0.004718683 -0.0054141073 0.0012202517 0.0038460935 -0.002347404 -0.0076148706 -0.0059256987 -0.009853299 0.009710746 -0.004260735 -0.0010270616 -0.008966442 -0.004467999 -0.0049672737 0.0030414348 0.005545979 0.003632764 0.009738238 0.0020377378 0.009771376 0.007579103 0.0029415532 0.0022425398 -0.0073943627 -0.0023459485 0.005795255 -0.008072482 0.002258635 -0.007561147 0.009770266 -6.020183e-05 0.0010528774 -0.0048722005 0.0061648926 -0.007151678
for -0.0074653365 0.006744498 -0.0033158879 -0.0009662504 0.0054191602 0.004389748 0.0063225855 0.007296628 0.0055125114 -0.009029966 0.005096915 0.008932462 -0.0039260914 0.0010917608 -0.0031601705 -0.003502863 0.008745594 -0.00042600365 0.0033645579 -0.0057978593 0.005846361 -0.003288821 -0.0049337437 0.0021585764 0.009668901 -0.0060492265 0.0034804347 -0.0010730377 -0.007216089 -0.0043506753 -0.0081705 0.0055935923 -0.002730674 -0.0053442637 0.0009920794 0.004778453 0.009545955 -0.009844245 -0.0003119208 -0.0014075446 -0.0026689183 -0.0006113495 0.00816255 -0.0018183877 0.009451252 0.00035983277 -0.0011646085 0.0069020633 0.0070092194 0.0004904823 -0.00024997594 0.0062466576 -0.003831251 0.0045681535 -0.00017766112 -0.006036964 0.0064961044 -0.0039910567 0.002140496 -0.0067941104 0.0027233977 0.005566729 0.0052045058 -0.007989261 -0.0059893746 0.0072405934 0.003153104 0.0012980286 -0.0063692634 -0.0012451403 -0.009262531 0.0013832515 -0.004468468 0.00075789465 0.0046301573 0.0024380642 -0.007091644 0.0009514702 -0.006764157 -0.003842794 0.0018114072 0.008076685 -0.0066505526 0.0024681464 0.008077589 0.009908596 0.0063790423 -0.007256527 0.0039832285 0.008861754 0.0043571475 0.0025975278 -0.0015770444 0.0036234348 0.004327148 0.008914059 -0.0036753675 -0.008833786 0.0065274127 -0.0062638638
product -0.0006180838 0.0014637891 -0.001149055 -0.004057148 0.000909268 -0.009777287 0.0014848987 -0.0039530867 -0.0058768513 0.0037167177 0.0014311945 0.0034919418 0.0009385604 -0.009459846 0.010036384 -0.0035825176 -0.0021745786 0.007073233 4.526592e-05 0.0028688523 0.0022850956 0.0024123415 0.0067780656 0.009436311 -0.00061475916 -0.003415562 0.0045129824 -0.008354623 0.008444351 0.002371669 0.0060636895 0.002787822 -0.0012995969 0.0008632923 -0.004830346 0.0092389025 0.0050838552 0.0035252147 -0.0050835647 -0.008745477 0.007966223 0.0029074608 -0.004249514 -0.008619071 -0.003868485 0.0013980253 -0.00927389 4.2499996e-05 0.002857195 -0.009897091 -0.00012567561 -0.0061401487 -0.0036203777 -0.0016486619 -0.010076184 -0.0035545477 -0.0069876886 -0.0073276293 0.0015598834 0.0024181039 0.009324736 0.0088697355 -0.0063317087 -0.009146306 0.0077884234 0.00549749 0.00696526 -0.0027867658 -0.0053706886 -0.0044655744 -0.008391132 0.005974906 -0.0033715137 0.008635709 -0.0055678003 0.009668177 -0.0044548316 0.0087524755 -0.0054754955 -0.007486951 0.0075866864 -0.009681698 -0.00888323 0.0050822212 -0.0098315785 0.0052997074 0.0037929032 -0.006950702 0.0032442466 0.0014537155 0.008763737 0.0029450408 -0.0051142466 -0.0023203474 0.006954801 -0.0065544895 0.009402118 -0.0032718657 -0.0046018283 -0.004375078
you 0.0030689342 -0.009792987 0.0032487358 -0.0044978326 0.009724137 -0.005145625 -0.007906751 0.0037569578 0.008864889 0.0026636687 -0.0022991402 0.0033420038 -0.00890989 -0.004088676 -0.0043251314 0.0018299554 -0.006305462 -0.0077157286 -0.006594215 0.0050710416 0.002788864 0.008855642 0.0023819162 0.005284802 0.004259036 0.004652822 -0.0050160093 0.0014237142 0.00026349426 0.0052432837 -0.0065000877 -0.00074658415 0.004067624 -0.004990463 -0.008526026 0.0057417154 -0.000790157 0.00025763904 -0.006172969 0.008394032 0.00094342843 0.0016609128 -0.00041549158 0.0007544847 0.005893522 -0.009243411 0.0022625548 -0.0055844905 0.009511972 0.004412615 -0.005476587 -0.0013120091 -0.0055478327 0.008493501 0.009000426 0.0023670052 0.009697408 -0.0047128955 0.0027513593 -0.0050414684 -0.0087463865 -0.004174239 -0.0012822994 -0.0055875843 -0.0046572834 0.0007298491 -6.3193984e-05 -0.008122018 0.006749614 0.001692172 -0.009558554 -0.0013307637 -0.0075034495 0.0076024993 -0.0009491423 0.007849877 0.005079271 -0.003980301 -0.0091533465 -0.006169533 0.008786825 -0.0014747381 -0.0004033311 0.00025642445 -0.008349577 0.004221382 -0.008044659 0.00950996 -0.008040103 0.007922565 -0.0018279318 -0.0020019163 -0.0022917367 0.0010087154 0.0025656524 0.0016851728 -0.00047313422 0.007517793 -0.0063802516 -0.007905933
far -0.007227494 0.0064050807 -0.0019173274 -0.0047909515 0.0050251675 -0.007998638 0.003000716 0.009830178 0.006812583 -0.0031280525 0.0023529376 0.004768831 0.009668563 -0.0027079142 0.001418771 -0.004257992 -0.0031570569 0.0007572424 0.002149722 -0.005572912 0.004274698 -0.0050841155 -0.0045720665 -0.009013806 0.0075706965 0.0043342607 -0.00226237 0.0083941575 0.0019527631 -0.009899821 -0.0076850187 -0.0042451853 -0.007242498 0.00727494 0.005057957 0.0021883629 -0.00058883545 -0.007515285 0.0060631344 -0.005324223 -0.002657216 -0.005926331 -0.0021650402 -0.009238413 0.0033656263 -0.007468801 0.006690574 -0.007463009 -0.0058305226 9.332261e-05 -0.007914663 0.0052761645 -0.004214226 0.00037395436 0.007702991 0.0031906974 -0.00013327721 0.0077134655 -0.00018238925 0.005702864 0.006016321 -0.0080153 0.0020038618 -0.009377387 -0.0014997638 0.008708165 -0.0024215258 -0.00461403 0.002632642 0.007359231 0.006500869 -0.0064155813 0.0071078115 0.007603366 -0.005243022 -0.001136139 -0.0005682809 -0.009294375 -0.0024405008 0.009814932 -0.0026898442 -0.007550423 -0.0043689883 -0.009391481 0.001908869 0.006046011 0.00090761494 -0.003360205 0.009616436 -0.009350458 -0.00439279 -0.009691982 0.009575522 -0.0018430739 -0.005209062 -0.007836795 0.008343275 -0.0030296615 -0.0057657147 0.003701778
